tree
version=v4
num_class=1
num_tree_per_iteration=1
label_index=0
max_feature_idx=20
objective=binary sigmoid:1
feature_names=h_action_entropy_max h_action_entropy_std h_action_run_share_iqr h_action_run_share_min h_actor_entropy_max h_actor_entropy_mean h_actor_entropy_min h_actor_entropy_q90 h_actor_entropy_std h_actor_run_share_q10 h_fold_share_min h_hero_action_share_max h_hero_action_share_q90 h_n_players_min h_n_streets_q90 h_passive_share_iqr h_postflop_share_iqr h_preflop_share_iqr hand_count rate_high_actor_entropy rate_low_action_entropy
feature_infos=[0.93552452325820923:1] [0.033877793699502945:0.2048746645450592] [0:0.5] [0.083333335816860199:0.5] [0.97566413879394531:1] [0.83013725280761719:0.98705559968948364] [0:0.95914793014526367] [0.95132827758789062:1] [0.011321076191961765:0.27782252430915833] [0.1666666716337204:0.4166666567325592] [0:0.66666668653488159] [0.3333333432674408:1] [0.25:0.83333331346511841] [2:6] [0:3] [0:0.73863637447357178] [0:0.75] [0:0.75] [40:80] [0.72000002861022949:1] [0:0.046511627733707428]
tree_sizes=786 1201 888 1306 1202 1081 878 1169 1083 1302 780 1269 1092 776 1298 994 1366 892 996 891 1104 1099 996 1205 1195 1194 1310 1191 890 1204 1208 1101 1210 1206 1162 1103 1206 1098 997 1309 686 994 788 1086 788 1203 1204 887 997 892 1196 963 1192 885 1189 885 1001 1202 1207 891 995 1099 1421 997 1074 1096 1183 1185 1100 1099 1278 775 1197 861 875 996 1290 1203 1421 996 969 998 1097 996 987 1187 789 1211 897 1179 1291 1189 999 1208 1099 1205 1192 782 1409 887 1198 1088 1178 878 1284 1186 895 890 789 1302 1099 1106 996 896 1249 1290 1215 1288 1081 996 876 891 1202 1105 1002 897 1402 1187 999 1291 1073 1084 1300 864 935 1101 873 1254 1197 789 977 1192 1301 978 892 1196 995 997 1103 995 983 872 1075 1295 1109 790 981 1209 1045 877 1006 976 1316 1371 999 1101 1113 1317 1197 1313 1208 1002 896 1002 1086 998 1082 997 1003 1250 968 897 1170 1279 1000 999 883 995 1213 1087 898 894 1050 1181 958 1099 891 1195 1089 1086 1060 1167 1068 1209 1102 881 1075 947 840 1006 1146 957 998 1275 997 1080 1081 1196 975 997 1057 1108 1075 1071 900 864 974 1055 850 1101 1058 1108 1164 1057 1101 875 1195 1067 1165 982 862 963 1004 1272 1035 926 780 1077 883 950 1229 1067 1092 1079 1056 1003 1088 1126 1106 1254 845 964 1054 1010 1042 855 1262 1101 952 1134 1065 981 1093 979 940 882 1053 1086 1035 932 899 969 970 949 865 974 874 1041 1080 1244 951 1127 1129 1137 1046 1182 1133 960 1227 1231 862 1054 913 1158 931 860 919 1045 865 1068 871 1073 1066 965 1214 1089 1221 1127 1136 1148 792 1360 1159 1150 967 1052 1133 1055 942 1044 1065 921 1116 1251 1423 899 876 1088 989

Tree=0
num_leaves=7
num_cat=0
split_feature=15 15 16 16 12 13
split_gain=663.857 565.709 693.352 84.6315 4.17066 3.51538
threshold=0.33630952239036566 0.16369047760963443 0.40625000000000006 0.42708332836627966 0.55416667461395275 4.5000000000000009
decision_type=2 2 2 2 2 2
left_child=1 -1 5 -4 -5 -3
right_child=-2 2 3 4 -6 -7
leaf_value=-0.038688524590163934 -0.038819188191881918 -0.024950495049504952 0.005644171779141104 0.038816568047337276 0.026470588235294117 -0.038222222222222227
leaf_weight=75.25 134.5 49.5 39.75 252.5 33 32.75
leaf_count=301 538 198 159 1010 132 131
internal_value=0.00027497 0.0112661 0.020612 0.0337471 0.0375567 -0.0308709
internal_weight=617.25 482.75 407.5 325.25 285.5 82.25
internal_count=2469 1931 1630 1301 1142 329
is_linear=0
shrinkage=0.02


Tree=1
num_leaves=10
num_cat=0
split_feature=2 17 16 2 6 11 16 6 6
split_gain=485.348 443.262 405.755 271.513 19.9881 19.821 19.2184 5.57109 2.32327
threshold=0.15625000000000003 0.48958332836627966 0.40625000000000006 0.19791666418313983 0.81209269165992748 0.79166665673255932 0.53125000000000011 0.76011362671852123 0.65336349606513988
decision_type=2 2 2 2 2 2 2 2 2
left_child=2 4 -1 6 8 -5 7 -3 -2
right_child=1 3 -4 5 -6 -7 -8 -9 -10
leaf_value=-0.029247823010322992 -0.027241008806648811 0.010163154115708955 0.037433906399608245 -0.035778562262726028 -0.014939420585114487 -0.010645163489550811 0.034456414787837474 0.024666753248469325 -0.037404653128934408
leaf_weight=44.735068544745445 44.737905293703079 33.488189518451691 177.6909676194191 32.488162100315094 28.241893902420998 26.491580456495285 64.476616576313972 25.990309342741966 138.70965170860291
leaf_count=179 179 134 711 130 113 106 258 104 555
internal_value=0.000266007 -0.0130099 0.0238623 0.00968577 -0.0326701 -0.0251887 0.0265084 0.0171346 -0.0351956
internal_weight=617.05 394.624 222.426 182.935 211.689 58.9797 123.955 59.4785 183.448
internal_count=2469 1579 890 732 847 236 496 238 734
is_linear=0
shrinkage=0.02


Tree=2
num_leaves=7
num_cat=0
split_feature=16 15 16 15 7 7
split_gain=948.38 777.149 47.2545 144.995 12.5174 7.96945
threshold=0.42708332836627966 0.34232954680919653 0.40625000000000006 0.27291667461395269 0.98825368285179149 0.98398548364639293
decision_type=2 2 2 2 2 2
left_child=2 5 4 -4 -1 -2
right_child=1 -3 3 -5 -6 -7
leaf_value=-0.03759272286891821 0.021950577760447825 -0.036777513840519527 0.020959414611269409 -0.035347347685974466 -0.022187760960887586 0.03746872557003459
leaf_weight=142.08692929148674 26.220480903983116 72.186911463737488 27.490379422903061 49.199988946318626 39.958157733082771 259.43527241051197
leaf_count=569 105 289 110 197 160 1039
internal_value=0.00025739 0.0213577 -0.0288181 -0.0148962 -0.0344603 0.0361956
internal_weight=616.578 357.843 258.735 76.6904 182.045 285.656
internal_count=2469 1433 1036 307 729 1144
is_linear=0
shrinkage=0.02


Tree=3
num_leaves=11
num_cat=0
split_feature=13 12 16 1 16 13 16 16 2 16
split_gain=456.257 442.795 285.394 81.909 41.4696 34.0531 39.804 8.53857 8.00713 0.227141
threshold=3.5000000000000004 0.55416667461395275 0.40625000000000006 0.073910679668188109 0.42708332836627966 4.5000000000000009 0.40625000000000006 0.48958332836627966 0.15625000000000003 0.40625000000000006
decision_type=2 2 2 2 2 2 2 2 2 2
left_child=1 2 -1 7 -4 6 -2 -3 -6 -7
right_child=5 3 4 -5 8 9 -8 -9 -10 -11
leaf_value=-0.02562055808342166 -0.030562929203789745 -0.035886204231866912 0.0081072952392324746 0.00659817360991506 0.037468222735776692 -0.03723291910434625 0.002588795695740863 -0.021229810372563059 0.027849334894971212 -0.026683768938143646
leaf_weight=40.160150662064552 27.685208931565285 49.384049892425537 31.962042242288589 33.189937233924866 139.30848273634911 77.775209039449692 26.94063176214695 49.146332919597626 107.22730012238026 32.930531740188599
leaf_count=161 111 198 128 133 559 312 108 197 430 132
internal_value=0.000249647 0.0107155 0.0234746 -0.0199449 0.0306922 -0.0280331 -0.0141008 -0.0290634 0.0334948 -0.034541
internal_weight=615.71 450.378 318.658 131.72 278.498 165.332 54.6258 98.5304 246.536 110.706
internal_count=2469 1806 1278 528 1117 663 219 395 989 444
is_linear=0
shrinkage=0.02


Tree=4
num_leaves=10
num_cat=0
split_feature=17 7 6 0 6 17 16 16 6
split_gain=881.345 70.9911 58.3018 71.6939 46.7719 52.6143 34.7207 3.07807 2.58076
threshold=0.42708332836627966 0.98753115534782421 0.81209269165992748 0.98407599329948436 0.65336349606513988 0.51041665673255932 0.40625000000000006 0.59375000000000011 0.81478682160377514
decision_type=2 2 2 2 2 2 2 2 2
left_child=1 8 3 -2 7 -6 -3 -5 -1
right_child=2 6 -4 4 5 -7 -8 -9 -10
leaf_value=-0.035567522116399179 -0.01116021695904962 -0.021258509896025578 0.036277831381717973 0.022757566858655601 -0.0082210435614319954 0.024997736889054049 0.0073581304123663685 0.031797196566883248 -0.02356655518439358
leaf_weight=163.283531203866 32.387925937771797 39.868573293089867 76.399680182337761 125.00239887833595 42.111898273229599 32.593788057565689 26.966429263353348 48.286229372024536 27.892706289887428
leaf_count=656 130 160 307 502 169 131 108 194 112
internal_value=0.000240678 -0.0278254 0.0206139 0.0161609 0.0198399 0.00614675 -0.00947924 0.0255592 -0.0340524
internal_weight=614.793 258.011 356.782 280.382 247.994 74.7057 66.835 173.289 191.176
internal_count=2469 1036 1433 1126 996 300 268 696 768
is_linear=0
shrinkage=0.02


Tree=5
num_leaves=9
num_cat=0
split_feature=16 2 7 16 5 2 8 5
split_gain=827.169 398.101 81.9051 60.453 53.8438 21.5426 5.50459 3.18173
threshold=0.48958332836627966 0.17708333581686023 0.98825368285179149 0.40625000000000006 0.92650321125984203 0.15625000000000003 0.085643585771322264 0.93504196405410778
decision_type=2 2 2 2 2 2 2 2
left_child=2 4 5 -4 -2 -1 -3 -6
right_child=1 6 3 -5 7 -7 -8 -9
leaf_value=-0.01636052277640368 0.002803150497817119 -0.0293579759414953 -0.023399330551535123 0.012502149681288132 0.024534718720128336 -0.035331550964608251 -0.013960476207676428 0.035597457780999625
leaf_weight=36.041495069861412 25.655605345964432 38.136818081140518 40.063665568828583 32.935043811798096 35.297529593110085 167.14196607470512 24.944662541151047 213.83640339970589
leaf_count=145 103 153 161 132 142 673 100 861
internal_value=0 0.020957 -0.025627 -0.00698122 0.031375 -0.032161 -0.0238942 0.0342144
internal_weight=614.053 337.871 276.182 72.9987 274.79 203.183 63.0815 249.134
internal_count=2470 1359 1111 293 1106 818 253 1003
is_linear=0
shrinkage=0.02


Tree=6
num_leaves=7
num_cat=0
split_feature=16 15 7 16 8 12
split_gain=796.537 635.287 79.0705 58.22 15.2789 9.30184
threshold=0.48958332836627966 0.34232954680919653 0.98825368285179149 0.40625000000000006 0.042648956179618842 0.55416667461395275
decision_type=2 2 2 2 2 2
left_child=2 5 4 -4 -1 -2
right_child=1 -3 3 -5 -6 -7
leaf_value=-0.018429755774825286 0.035495887291381006 -0.035303916859075364 -0.022981706266428318 0.012261727912234399 -0.034519518027113318 0.020587832928583447
leaf_weight=39.198089271783829 241.9028949290514 64.526676297187805 39.994725942611694 32.928867980837822 163.43377691507339 30.649903625249863
leaf_count=158 977 259 161 132 660 123
internal_value=0 0.0205878 -0.025178 -0.00684629 -0.031611 0.0339739
internal_weight=612.635 337.079 275.555 72.9236 202.632 272.553
internal_count=2470 1359 1111 293 818 1100
is_linear=0
shrinkage=0.02


Tree=7
num_leaves=10
num_cat=0
split_feature=16 5 7 16 7 5 8 8 5
split_gain=767.506 326.365 76.3968 56.0815 34.7747 28.2943 29.4684 14.7775 0.204676
threshold=0.48958332836627966 0.92371311783790599 0.98825368285179149 0.40625000000000006 0.9869937300682069 0.93504196405410778 0.075943510979414 0.042648956179618842 0.94067269563674938
decision_type=2 2 2 2 2 2 2 2 2
left_child=2 4 7 -4 -2 6 -3 -1 -7
right_child=1 5 3 -5 -6 8 -8 -9 -10
leaf_value=-0.018096533407330351 -0.035730297143257934 0 -0.022576759510554312 0.012026777847388245 -0.0045732467385076114 0.026382391114194534 0.029450416227837641 -0.033954274024711836 0.034208276985430025
leaf_weight=39.140459880232811 31.315301105380058 25.030798554420471 39.916561752557755 32.92032678425312 29.332135960459709 50.654851377010345 25.745342567563057 162.85378757119179 173.92152604460716
leaf_count=158 126 101 161 132 118 205 104 660 705
internal_value=0 0.0202427 -0.0247461 -0.00671495 -0.0213042 0.0295099 0.0148447 -0.0310843 0.0326565
internal_weight=610.831 336 274.831 72.8369 60.6474 275.353 50.7761 201.994 224.576
internal_count=2470 1359 1111 293 244 1115 205 818 910
is_linear=0
shrinkage=0.02


Tree=8
num_leaves=9
num_cat=0
split_feature=17 2 7 17 11 12 5 8
split_gain=739.63 362.688 73.8752 54.0323 21.7146 16.9752 22.9128 14.3215
threshold=0.48958332836627966 0.17708333581686023 0.98825368285179149 0.40625000000000006 0.79166665673255932 0.55416667461395275 0.93212810158729564 0.042648956179618842
decision_type=2 2 2 2 2 2 2 2
left_child=2 5 7 -4 -3 6 -2 -1
right_child=1 4 3 -5 -6 -7 -8 -9
leaf_value=-0.017771736578599977 0.014178478793751424 -0.03332326309306223 -0.022183787463510147 0.011797114240929846 -0.0081522459918031767 0.01227481377571063 0.034044201757743135 -0.033415565952906227
leaf_weight=39.077581092715263 32.410882577300072 35.452934399247169 39.829766243696213 32.909562945365906 27.350840449333191 25.321672409772873 214.46329103410244 162.19233554601669
leaf_count=158 131 143 161 132 110 102 873 660
internal_value=0 0.0198995 -0.0243306 -0.00658704 -0.0229744 0.0299129 0.0315845 -0.03058
internal_weight=609.009 335 274.009 72.7393 62.8038 272.196 246.874 201.27
internal_count=2470 1359 1111 293 253 1106 1004 818
is_linear=0
shrinkage=0.02


Tree=9
num_leaves=11
num_cat=0
split_feature=16 5 17 19 13 5 5 17 16 5
split_gain=713.056 306.809 58.7431 30.3116 29.7843 86.8745 26.4866 14.7198 0.272478 0.160526
threshold=0.48958332836627966 0.92371311783790599 0.40625000000000006 0.95904389023780834 3.5000000000000004 0.93419954180717479 0.93504196405410778 0.51041665673255932 0.11458333209156991 0.94153037667274486
decision_type=2 2 2 2 2 2 2 2 2 2
left_child=2 3 8 -2 5 -4 7 -3 -1 -8
right_child=1 6 4 -5 -6 -7 9 -9 -10 -11
leaf_value=-0.024673905860089419 -0.0031006021612334724 0.0022331094863199336 -0.026954460972112782 -0.032678053011536222 -0.025557456731361294 0.018971914880199895 0.026211345652413686 0.024721634758744865 -0.032908763483693863 0.033417359432986453
leaf_weight=44.977310612797737 25.575405359268188 24.734383568167686 30.287368416786194 34.89378596842289 36.175921529531479 33.586683303117752 60.612426891922951 25.86217899620533 128.06889070570469 162.15009970963001
leaf_count=183 103 100 123 141 147 135 247 105 523 663
internal_value=0 0.0195718 -0.0239304 -0.0207476 -0.0112546 -0.00257666 0.0286068 0.014372 -0.0310374 0.0316719
internal_weight=606.924 333.828 273.096 60.4692 100.05 63.8741 273.359 50.5966 173.046 222.763
internal_count=2470 1359 1111 244 405 258 1115 205 706 910
is_linear=0
shrinkage=0.02


Tree=10
num_leaves=6
num_cat=0
split_feature=15 17 17 5 15
split_gain=508.126 876.069 73.1436 6.29557 0.626475
threshold=0.34232954680919653 0.40625000000000006 0.42708332836627966 0.92843487858772289 0.16369047760963443
decision_type=2 2 2 2 2
left_child=1 4 -3 -4 -1
right_child=-2 2 3 -5 -6
leaf_value=-0.033810800322029315 -0.034357993603486729 0.0039021129415584433 0.020128018919102559 0.033587691495219618 -0.025920743197929367
leaf_weight=72.336413785815239 132.94439059495926 43.917271614074707 28.992614895105362 246.27134446799755 76.335772797465324
leaf_count=296 541 177 117 1010 313
internal_value=0 0.00981133 0.0284971 0.0323204 -0.0300935
internal_weight=600.798 467.853 319.181 275.264 148.672
internal_count=2454 1913 1304 1127 609
is_linear=0
shrinkage=0.02


Tree=11
num_leaves=11
num_cat=0
split_feature=2 5 13 13 19 5 13 15 6 15
split_gain=360.204 193.42 126.913 115.097 80.4127 29.12 34.03 28.8672 16.2883 9.28984
threshold=0.15625000000000003 0.93917766213417064 3.5000000000000004 3.5000000000000004 0.93603381514549266 0.93212810158729564 3.5000000000000004 0.18660714477300647 0.81209269165992748 0.25198413431644445
decision_type=2 2 2 2 2 2 2 2 2 2
left_child=3 4 8 7 -2 9 -7 -1 -3 -6
right_child=1 2 -4 -5 5 6 -8 -9 -10 -11
leaf_value=0.01184097738504406 0.0099527310246603808 0.011805145909612666 -0.021319367716102704 -0.0096296063183489346 -0.018339686984740242 0 -0.030063652689533069 0.032718149596865684 0.029503688943463946 -0.034185479425879559
leaf_weight=39.224664285778999 25.427878394722939 72.747852697968483 46.06081135571003 38.325142562389374 28.243038162589073 31.28244349360466 26.244539260864258 131.55727782845497 34.740481987595558 124.28568190336227
leaf_count=161 103 298 189 157 116 128 108 542 143 509
internal_value=0 -0.0113767 0.00596427 0.0211066 -0.022746 -0.0268274 -0.013717 0.0281364 0.0179289 -0.0315202
internal_weight=598.14 389.033 153.549 209.107 235.484 210.056 57.527 170.782 107.488 152.529
internal_count=2454 1594 630 860 964 861 236 703 441 625
is_linear=0
shrinkage=0.02


Tree=12
num_leaves=9
num_cat=0
split_feature=16 8 15 16 8 15 15 16
split_gain=666.382 92.1119 367.469 58.1314 62.8623 46.7566 18.8025 0.11924
threshold=0.48958332836627966 0.059664258733391769 0.34232954680919653 0.40625000000000006 0.051196228712797172 0.31696428358554846 0.27291667461395269 0.11458333209156991
decision_type=2 2 2 2 2 2 2 2
left_child=3 6 -3 7 -5 -6 -2 -1
right_child=1 2 -4 4 5 -7 -8 -9
leaf_value=-0.024157700631413061 0.03325191627912169 0.030068831323462625 -0.032738930621504667 0.015929350455255273 0.0012310999307224093 -0.031588693771831773 0.012864565030840625 -0.031885727905492038
leaf_weight=48.701120063662529 134.20069298148155 107.60859391093254 55.562814876437187 25.481799736618996 25.476550281047821 46.433515086770058 26.900040462613106 125.90794922411442
leaf_count=200 557 442 226 103 103 191 111 521
internal_value=0 0.0193331 0.00849068 -0.0230444 -0.0102034 -0.0198295 0.0300714 -0.029994
internal_weight=596.273 324.272 163.171 272.001 97.3919 71.9101 161.101 174.609
internal_count=2454 1336 668 1118 397 294 668 721
is_linear=0
shrinkage=0.02


Tree=13
num_leaves=6
num_cat=0
split_feature=16 15 7 15 2
split_gain=643.358 524.294 69.329 24.5122 21.3529
threshold=0.48958332836627966 0.34232954680919653 0.98753115534782421 0.26547619700431829 0.15625000000000003
decision_type=2 2 2 2 2
left_child=2 -2 4 -4 -1
right_child=1 -3 3 -5 -6
leaf_value=-0.013428695008596923 0.031513470110245863 -0.03269290252751024 0.0033519265780805629 -0.02054475047957233 -0.031910104633039768
leaf_weight=36.812519863247871 260.60770530998707 62.003425523638725 44.983743935823441 25.589846059679985 163.43600082397461
leaf_count=151 1083 253 183 104 680
internal_value=0 0.0190488 -0.022688 -0.00519951 -0.0286956
internal_weight=593.433 322.611 270.822 70.5736 200.249
internal_count=2454 1336 1118 287 831
is_linear=0
shrinkage=0.02


Tree=14
num_leaves=11
num_cat=0
split_feature=16 12 7 7 16 8 7 12 16 8
split_gain=622.452 193.077 137.436 46.6858 32.184 15.9475 69.0895 13.1302 5.06063 11.4437
threshold=0.42708332836627966 0.55416667461395275 0.99682947993278515 0.98753115534782421 0.40625000000000006 0.053085684776306159 0.98918655514717113 0.47916665673255926 0.40625000000000006 0.05820270627737046
decision_type=2 2 2 2 2 2 2 2 2 2
left_child=3 5 -3 8 -5 -2 -7 -8 -1 -10
right_child=1 2 -4 4 -6 6 7 -9 9 -11
leaf_value=-0.031592307092649541 0.031002119747272145 -0.033614107547541572 0.019840215684211876 -0.019886449886717467 0.0085423012319599378 -0.007062771693542671 0.012246222226615158 0.03151237512237777 -0.0094841460121258304 -0.030286794751877722
leaf_weight=134.58822025358677 131.54261635243893 43.022720530629158 32.838483422994614 38.248574838042259 24.883891388773918 28.142019331455231 23.887262254953384 80.851626023650169 24.322947338223457 28.072066202759743
leaf_count=564 552 177 134 157 100 116 99 338 100 117
internal_value=0 0.0175776 -0.0102577 -0.0239078 -0.00841082 0.0256473 0.020005 0.027465 -0.0289612 -0.0213628
internal_weight=590.4 340.285 75.8612 250.116 63.1325 264.424 132.881 104.739 186.983 52.395
internal_count=2454 1416 311 1038 257 1105 553 437 781 217
is_linear=0
shrinkage=0.02


Tree=15
num_leaves=8
num_cat=0
split_feature=17 5 17 5 12 13 2
split_gain=610.683 294.79 42.7262 69.3017 29.9977 16.2608 10.3052
threshold=0.42708332836627966 0.92275339365005504 0.40625000000000006 0.93401587009429943 0.57916665077209484 3.5000000000000004 0.21875000000000003
decision_type=2 2 2 2 2 2 2
left_child=2 6 -1 -4 5 -3 -2
right_child=1 4 3 -5 -6 -7 -8
leaf_value=-0.02906447601276646 -0.0091336550374048094 0.030421289890215371 -0.026790829919768097 0.011534455886100674 0.0069991346059098073 0.010949403244043601 -0.027725050989529994
leaf_weight=171.30257232487202 24.703694477677345 227.65373787283897 42.523764103651047 31.677899345755577 31.953796923160553 23.750880092382431 38.440725728869438
leaf_count=719 101 960 177 128 131 98 159
internal_value=0.000526692 0.0176382 -0.0235168 -0.0102274 0.0263667 0.0287116 -0.0210192
internal_weight=592.007 346.503 245.504 74.2017 283.358 251.405 63.1444
internal_count=2473 1449 1024 305 1189 1058 260
is_linear=0
shrinkage=0.02


Tree=16
num_leaves=12
num_cat=0
split_feature=7 8 3 2 6 12 6 2 12 8 11
split_gain=432.594 169.455 135.87 59.7586 39.8686 13.1228 53.6555 9.9418 9.55113 30.5527 0.582535
threshold=0.98753115534782421 0.045360362157225616 0.20833333581686023 0.23958333581686023 0.65336349606513988 0.50416666269302379 0.65336349606513988 0.15625000000000003 0.36249999701976782 0.043702373281121261 0.79166665673255932
decision_type=2 2 2 2 2 2 2 2 2 2 2
left_child=1 2 7 4 10 6 -3 -1 -6 -10 -2
right_child=3 5 -4 -5 8 -7 -8 -9 9 -11 -12
leaf_value=0.027906949640950467 0.023206523496472592 0 -0.030979119696410682 -0.0088608153731102347 0.004458430890516442 -0.03262833169036549 -0.02834927655686233 0.011542189018827861 0.029151002872227463 0 0.031592024760320844
leaf_weight=35.332859098911285 46.503388002514839 36.017551466822624 28.051792085170746 26.172751978039742 44.557957679033279 77.987162679433823 100.36873517930508 39.663383558392525 35.307347401976585 24.255192339420319 94.696621850132942
leaf_count=149 196 151 118 107 186 327 424 167 150 101 397
internal_value=0.000517161 -0.015279 0.00560592 0.0190473 0.0221298 -0.0253906 -0.020899 0.019781 0.0122277 0.01754 0.0291536
internal_weight=588.915 317.421 103.048 271.493 245.321 214.373 136.386 74.9962 104.12 59.5625 141.2
internal_count=2473 1336 434 1137 1030 902 575 316 437 251 593
is_linear=0
shrinkage=0.02


Tree=17
num_leaves=7
num_cat=0
split_feature=16 15 17 15 15 15
split_gain=577.872 533.125 41.0568 116.776 1.87315 0.496525
threshold=0.42708332836627966 0.34232954680919653 0.40625000000000006 0.25198413431644445 0.26547619700431829 0.33184523880481726
decision_type=2 2 2 2 2 2
left_child=2 4 -1 -4 -2 -6
right_child=1 -3 3 -5 5 -7
leaf_value=-0.028460977261612019 0.031344873617556328 -0.031848584812785831 0.022059611968348106 -0.029135810953551892 0.016579266932830808 0.02715441582656665
leaf_weight=169.46976800262928 213.18503929674625 69.314267188310623 27.230807304382324 46.503301739692688 23.783424779772758 36.855202600359917
leaf_count=719 906 287 110 195 100 156
internal_value=0.000510771 0.0172402 -0.022985 -0.00991899 0.0298098 0.0236674
internal_weight=586.342 343.138 243.204 73.7341 273.824 60.6386
internal_count=2473 1449 1024 305 1162 256
is_linear=0
shrinkage=0.02


Tree=18
num_leaves=8
num_cat=0
split_feature=17 2 5 16 5 19 5
split_gain=558.772 271.172 66.7736 39.9179 63.9981 20.1666 7.45513
threshold=0.42708332836627966 0.17708333581686023 0.92419284582138073 0.40625000000000006 0.93401587009429943 0.96065530180931102 0.9319816827774049
decision_type=2 2 2 2 2 2 2
left_child=3 2 -2 -1 -5 -3 -4
right_child=1 5 6 4 -6 -7 -8
leaf_value=-0.028088860772406177 -0.0048895778175513009 -0.0042113437348464209 0.015110830957788066 -0.025856912938074489 0.011114561086652442 -0.028512694418217084 0.029941858486255083
leaf_weight=168.30552785098553 24.751411408185959 24.439628452062607 23.911129340529442 41.866602897644043 31.580619320273399 39.428996533155441 228.29236297309399
leaf_count=719 102 101 100 177 128 165 981
internal_value=0.000504135 0.0170149 0.0256011 -0.0226645 -0.00975562 -0.0197303 0.02868
internal_weight=582.576 340.824 276.955 241.753 73.4472 63.8686 252.203
internal_count=2473 1449 1183 1024 305 266 1081
is_linear=0
shrinkage=0.02


Tree=19
num_leaves=7
num_cat=0
split_feature=16 15 7 16 2 12
split_gain=540.007 506.173 44.6301 34.1556 10.2176 7.93308
threshold=0.42708332836627966 0.34232954680919653 0.98753115534782421 0.36458332836627966 0.15625000000000003 0.6041666865348817
decision_type=2 2 2 2 2 2
left_child=2 5 4 -4 -1 -2
right_child=1 -3 3 -5 -6 -7
leaf_value=-0.015427227978955472 0.030336745472731318 -0.031237471180829719 -0.019621486343222274 0.009985618147093929 -0.029918217936405846 0.015192215147405553
leaf_weight=33.912119537591934 246.20541113615036 68.701981365680695 35.409902393817902 25.450308248400688 145.53955820202827 23.847938761115074
leaf_count=143 1064 287 148 103 630 98
internal_value=0.000493901 0.0167756 -0.0223491 -0.0069559 -0.0273913 0.0291341
internal_weight=579.067 338.755 240.312 60.8602 179.452 270.053
internal_count=2473 1449 1024 251 773 1162
is_linear=0
shrinkage=0.02


Tree=20
num_leaves=9
num_cat=0
split_feature=7 8 16 15 16 14 16 5
split_gain=407.365 180.388 162.098 152.461 40.0401 27.4724 66.1284 4.30297
threshold=0.98918655514717113 0.043589269742369659 0.40625000000000006 0.34232954680919653 0.53125000000000011 2.1499999761581425 0.42708332836627966 0.93609982728958141
decision_type=2 2 2 2 2 2 2 2
left_child=1 2 -1 5 7 -2 -7 -3
right_child=3 4 -4 -5 -6 6 -8 -9
leaf_value=-0.026510229899842825 0.0043420031687345182 -0.03034235284009339 0.028726695246630993 -0.026615348825894919 -0.0027942923473667468 -0.0031156172712420672 0.030252259807808813 -0.020634707249673024
leaf_weight=32.311076670885086 29.647395595908165 148.18379320204258 57.031516775488853 26.062421634793282 30.947691604495049 25.924120888113976 179.50212424993515 50.762441769242287
leaf_count=139 124 641 247 107 132 107 780 219
internal_value=-0.000258844 -0.0154261 0.00845636 0.0181948 -0.0247904 0.0233393 0.0259498 -0.028081
internal_weight=580.373 319.237 89.3426 261.136 229.894 235.074 205.426 198.946
internal_count=2496 1378 386 1118 992 1011 887 860
is_linear=0
shrinkage=0.02


Tree=21
num_leaves=9
num_cat=0
split_feature=5 3 6 13 12 6 19 13
split_gain=284.738 270.881 132.471 110.522 43.963 42.8214 17.4275 12.2195
threshold=0.93178501725196849 0.20833333581686023 1.0000000180025095e-35 3.5000000000000004 0.52083331346511852 0.7983464002609254 0.94701755046844494 2.5000000000000004
decision_type=2 2 2 2 2 2 2 2
left_child=2 3 -1 4 7 -5 -4 -2
right_child=1 -3 6 5 -6 -7 -8 -9
leaf_value=0.018566605526511584 0.027429584437667909 -0.030668899227145482 -0.0085760871867453705 -0.024638073072992345 0.00027711212813443648 0.0095793691297848312 -0.028909396968597702 0.01226048708081556
leaf_weight=29.81791490316391 200.0998442620039 54.712890073657036 23.52574597299099 29.346398115158081 33.272968932986259 26.42090117931366 147.36832319200039 32.142635002732277
leaf_count=126 876 237 99 126 141 113 639 139
internal_value=-0.000258118 0.00996901 -0.0194703 0.0170252 0.0224074 -0.00819137 -0.0262928 0.0254775
internal_weight=576.708 375.996 200.712 321.283 265.515 55.7673 170.894 232.242
internal_count=2496 1632 864 1395 1156 239 738 1015
is_linear=0
shrinkage=0.02


Tree=22
num_leaves=8
num_cat=0
split_feature=16 5 15 16 15 15 7
split_gain=502.712 213.381 115.113 33.8813 131.144 30.1894 8.03443
threshold=0.48958332836627966 0.92935228347778331 0.34232954680919653 0.40625000000000006 0.27291667461395269 0.33184523880481726 0.98825368285179149
decision_type=2 2 2 2 2 2 2
left_child=3 2 -2 6 -5 -3 -1
right_child=1 5 -4 4 -6 -7 -8
leaf_value=-0.029031806266625559 0.018129265712599148 0.029655341937461065 -0.030698477746256694 0.021191423236879513 -0.027827128024913814 0.010038440719420829 -0.016001221184814722
leaf_weight=128.90094564855099 30.432104095816612 192.58608587086201 48.171022012829781 32.232434332370758 61.537701085209846 43.024180009961128 36.610842347145081
leaf_count=572 127 855 206 132 265 185 154
internal_value=-0.000253996 0.0166971 -0.0115527 -0.0208585 -0.0107207 0.0262152 -0.026383
internal_weight=573.495 314.213 78.6031 259.282 93.7701 235.61 165.512
internal_count=2496 1373 333 1123 397 1040 726
is_linear=0
shrinkage=0.02


Tree=23
num_leaves=10
num_cat=0
split_feature=7 15 6 13 2 15 8 15 12
split_gain=374.232 141.93 124.304 91.6811 68.9287 26.5288 12.2852 5.14603 3.20719
threshold=0.98918655514717113 0.34232954680919653 0.81209269165992748 2.5000000000000004 0.15625000000000003 0.18660714477300647 0.045360362157225616 0.25198413431644445 0.62916666269302379
decision_type=2 2 2 2 2 2 2 2 2
left_child=2 3 4 8 -1 -4 -6 -8 -2
right_child=1 -3 5 -5 6 -7 7 -9 -10
leaf_value=0.0011365274723135507 0.028794702736049695 -0.025812566325238224 -0.0064726115256275819 -0.008732890839140077 -0.010279537190307523 0.019330660209342737 -0.019880506468450274 -0.030458860866109553 0.016619001984215526
leaf_weight=43.237592935562134 176.79534934461117 25.818553581833839 23.745847031474113 30.877063155174255 22.902837157249451 40.478456407785416 46.542185664176941 135.97405275702477 23.007931932806969
leaf_count=189 784 107 104 131 101 179 206 599 96
internal_value=-0.000250914 0.0175842 -0.0149453 0.0226181 -0.02136 0.00953074 -0.0261746 -0.0279934 0.027582
internal_weight=569.38 256.499 312.881 230.68 248.657 64.2243 205.419 182.516 199.803
internal_count=2496 1118 1378 1011 1095 283 906 805 880
is_linear=0
shrinkage=0.02


Tree=24
num_leaves=10
num_cat=0
split_feature=7 8 14 5 14 11 8 8 5
split_gain=361.639 162.397 60.9815 21.2817 19.8535 26.3267 62.6742 2.63287 1.25844
threshold=0.98918655514717113 0.043589269742369659 2.6499999761581425 0.9319816827774049 2.1499999761581425 0.79166665673255932 0.062316654250025756 0.038221281021833427 0.92843487858772289
decision_type=2 2 2 2 2 2 2 2 2
left_child=1 2 -1 -3 -2 6 -6 -4 -7
right_child=4 3 7 -5 5 8 -8 -9 -10
leaf_value=-0.014805796697164317 0.0017869942782872481 -0.028508398809877641 0.024266633622284352 -0.014607970871713578 0.022197905577384699 0.01845402780956858 -0.0081825483172173058 0.01185630621452583 0.02959636064475726
leaf_weight=29.013362005352974 31.803816139698029 144.3269165456295 35.31529039144516 79.59919136762619 86.43659807741642 23.775011003017426 37.611118346452713 23.005878075957298 75.251927882432938
leaf_count=127 134 642 157 350 387 100 161 102 336
internal_value=-0.000249249 -0.0147279 0.0081678 -0.023743 0.0173425 0.0194531 0.0128349 0.0199907 0.0273324
internal_weight=566.139 311.261 87.3345 223.926 254.878 223.075 124.048 58.3212 99.0269
internal_count=2496 1378 386 992 1118 984 548 259 436
is_linear=0
shrinkage=0.02


Tree=25
num_leaves=10
num_cat=0
split_feature=16 16 8 0 7 13 7 19 7
split_gain=454.647 44.4354 45.5482 39.5872 84.5527 22.4954 13.2462 3.08259 3.00852
threshold=0.46875000000000006 0.40625000000000006 0.050724342465400703 0.98407599329948436 0.9803278148174287 2.5000000000000004 0.98918655514717113 0.98449519276618969 0.98825368285179149
decision_type=2 2 2 2 2 2 2 2 2
left_child=1 8 -3 -2 -5 6 -6 -4 -1
right_child=3 2 7 4 5 -7 -8 -9 -10
leaf_value=-0.028632793759224999 -0.0038438384379949758 0.013761512380692209 -0.012455514252363636 -0.011049008904244668 0.013982880620023437 0.0065808147520328908 0.027691857822631043 -0.024575855037632141 -0.018499494653690104
leaf_weight=123.4354405105114 34.205244272947311 24.834234535694122 40.165223076939583 32.94907183945179 46.074126645922661 35.251876249909401 166.30418018996716 22.803903684020042 36.503048092126846
leaf_count=560 150 103 174 144 203 154 750 100 154
internal_value=0 -0.0202577 -0.00835799 0.0158948 0.0183773 0.0224018 0.024891 -0.017473 -0.0265736
internal_weight=562.526 247.742 87.8034 314.784 280.579 247.63 212.378 62.9691 159.938
internal_count=2492 1091 377 1401 1251 1107 953 274 714
is_linear=0
shrinkage=0.02


Tree=26
num_leaves=11
num_cat=0
split_feature=2 5 8 13 13 8 11 14 5 8
split_gain=286.167 121.954 98.5268 97.7027 73.0157 23.3632 14.4859 13.6141 3.48803 2.6467
threshold=0.15625000000000003 0.93958547711372387 0.11112366616725923 2.5000000000000004 3.5000000000000004 0.040136886760592468 0.79166665673255932 2.5499999523162846 0.93381002545356762 0.045360362157225616
decision_type=2 2 2 2 2 2 2 2 2 2
left_child=4 2 6 9 7 -5 8 -1 -2 -3
right_child=1 3 -4 5 -6 -7 -8 -9 -10 -11
leaf_value=0.0086590186320532354 -0.029237723713324552 0.02573765655895242 0.013924024418208576 0.00050140253571904548 -0.0068619322391991408 -0.024342345561989786 -0.011569637822706112 0.027051110570216266 -0.018643099545514078 0.014674907293920408
leaf_weight=23.308201521635056 127.83723783493042 31.90192648768425 29.385694295167923 23.265856593847275 34.166427701711655 35.307743310928345 36.076166078448296 141.81656828522682 35.713729798793793 40.484792485833168
leaf_count=100 575 144 126 103 149 155 159 644 157 180
internal_value=-1.34641e-06 -0.0106747 -0.0194651 0.00457679 0.0191348 -0.0142957 -0.0245247 0.0246431 -0.0271731 0.0201072
internal_weight=559.264 359.973 229.013 130.96 199.291 58.5736 199.627 165.125 163.551 72.3867
internal_count=2492 1599 1017 582 893 258 891 744 732 324
is_linear=0
shrinkage=0.02


Tree=27
num_leaves=10
num_cat=0
split_feature=16 5 16 5 5 11 7 7 13
split_gain=431.437 190.81 43.4111 76.3648 24.87 30.8205 21.579 2.92072 0.981394
threshold=0.46875000000000006 0.92275339365005504 0.40625000000000006 0.93947526812553417 0.93526270985603344 0.79166665673255932 0.9869937300682069 0.98825368285179149 3.5000000000000004
decision_type=2 2 2 2 2 2 2 2 2
left_child=2 6 7 8 5 -3 -2 -1 -4
right_child=1 4 3 -5 -6 -7 -8 -9 -10
leaf_value=-0.028202735692916599 -0.028837117138700012 -0.0051684172431123269 -0.015849948764614728 0.017675767808079966 0.026387654688119072 0.023598509773448042 -0.0032212506351980874 -0.01815777632152538 -0.026450341105874353
leaf_weight=121.48154915869236 29.576319217681885 25.515061870217323 31.914246454834938 29.019539073109627 198.04767556488514 31.111300230026245 27.017322942614555 36.291332989931107 26.167710587382317
leaf_count=560 131 109 140 119 908 138 115 154 118
internal_value=0 0.0155673 -0.019852 -0.0080551 0.0229712 0.0104247 -0.0172238 -0.026147 -0.0213311
internal_weight=556.142 311.268 244.874 87.1015 254.674 56.6264 56.5936 157.773 58.082
internal_count=2492 1401 1091 377 1155 247 246 714 258
is_linear=0
shrinkage=0.02


Tree=28
num_leaves=7
num_cat=0
split_feature=16 15 16 15 5 7
split_gain=417.62 396.021 42.3665 112.374 6.47398 2.95337
threshold=0.46875000000000006 0.34232954680919653 0.40625000000000006 0.27291667461395269 0.92843487858772289 0.98825368285179149
decision_type=2 2 2 2 2 2
left_child=2 4 5 -4 -2 -1
right_child=1 -3 3 -5 -6 -7
leaf_value=-0.027931155682407768 0.015656559696162736 -0.029204764828813002 0.020519214729677805 -0.025688517357681868 0.028195963187095257 -0.017880468633112198
leaf_weight=120.23177741467953 30.869268521666527 62.312933519482613 32.832159966230392 53.897860482335091 215.83634088933468 36.134187325835228
leaf_count=560 131 271 135 242 999 154
internal_value=-4.19868e-06 0.0153663 -0.0196077 -0.00793383 0.0267772 -0.025864
internal_weight=552.115 309.019 243.096 86.73 246.706 156.366
internal_count=2492 1401 1091 377 1130 714
is_linear=0
shrinkage=0.02


Tree=29
num_leaves=10
num_cat=0
split_feature=17 5 17 8 12 5 6 5 6
split_gain=404.688 179.61 41.3363 41.6198 24.303 11.8314 8.9408 7.00937 1.13421
threshold=0.46875000000000006 0.92275339365005504 0.40625000000000006 0.050724342465400703 0.56250000000000011 0.93253466486930858 0.46454514563083654 0.92935228347778331 0.65336349606513988
decision_type=2 2 2 2 2 2 2 2 2
left_child=2 6 8 -4 5 -3 -2 -5 -1
right_child=1 4 3 7 -6 -7 -8 -9 -10
leaf_value=-0.017361342278593421 -0.0056783596288224967 0.010950830919193478 0.013376131165006744 -0.022437305956382447 0.0036836684978098851 0.026543622924207436 -0.02357397096627838 -0.0068713586734767572 -0.026999604808485966
leaf_weight=26.696088239550591 23.062941431999207 28.98733825981617 24.590898126363754 36.690686017274857 27.473973229527473 193.81835682690144 32.870976194739342 24.983672201633453 128.24534992873669
leaf_count=122 100 128 103 168 119 908 146 106 592
internal_value=-5.43289e-06 0.015199 -0.0193732 -0.00781426 0.0224629 0.0246623 -0.0167758 -0.016661 -0.0255892
internal_weight=547.42 306.214 241.207 86.2653 250.28 222.806 55.9339 61.6744 154.941
internal_count=2492 1401 1091 377 1155 1036 246 274 714
is_linear=0
shrinkage=0.02


Tree=30
num_leaves=10
num_cat=0
split_feature=5 8 12 16 16 8 16 12 19
split_gain=212.536 112.108 75.8768 209.452 69.2479 27.5038 17.9671 8.93167 0.853743
threshold=0.93347233533859264 0.11112366616725923 0.36249999701976782 0.40625000000000006 0.42708332836627966 0.048096351325511939 0.51041665673255932 0.52916666865348827 0.95904389023780834
decision_type=2 2 2 2 2 2 2 2 2
left_child=1 6 3 -2 -4 -5 8 -6 -1
right_child=2 -3 4 5 7 -7 -8 -9 -10
leaf_value=-0.017672587749558797 -0.024578428860347765 0.016698781733887849 -0.0059495049308940975 0.027912690823844497 0.026459324457053096 0.0019208958392974236 -0.006820209839903362 0.010050981715050313 -0.027925949044165014
leaf_weight=22.978790238499641 76.603183060884476 31.874143153429031 36.632711723446846 60.444649428129196 123.61873741447926 24.695099204778671 25.717987477779388 21.431484997272491 114.69356508553028
leaf_count=104 352 139 157 277 590 109 114 94 536
internal_value=-0.000207369 -0.0168542 0.00922105 -0.000632416 0.018058 0.0207157 -0.0235832 0.0242573 -0.0264986
internal_weight=538.69 195.264 343.426 161.743 181.683 85.1397 163.39 145.05 137.672
internal_count=2472 893 1579 738 841 386 754 684 640
is_linear=0
shrinkage=0.02


Tree=31
num_leaves=9
num_cat=0
split_feature=16 7 5 7 16 19 6 5
split_gain=398.285 90.8904 50.394 48.9889 27.6268 22.863 13.375 2.96716
threshold=0.48958332836627966 0.98097839951515209 0.92935228347778331 0.98753115534782421 0.36458332836627966 0.98319208621978771 0.81952184438705455 0.93544563651084911
decision_type=2 2 2 2 2 2 2 2
left_child=3 5 -3 6 -5 -2 -1 -4
right_child=1 2 7 4 -6 -7 -8 -9
leaf_value=-0.026555994111937091 -0.023607441404696995 0.00031707946865781677 0.015180872668978817 -0.016338793502519884 0.008987603759282755 0.0037627488825189861 -0.0079829892523262079 0.025851258882253324
leaf_weight=156.57535265386105 23.105325758457184 43.197213292121887 27.192846238613129 34.147445157170296 31.945876911282539 22.133462369441986 21.963850811123848 174.49607767164707
leaf_count=743 104 188 123 148 133 101 98 834
internal_value=-0.000203958 0.0155836 0.0204111 -0.0189961 -0.00384781 -0.00999204 -0.0244397 0.0245933
internal_weight=534.757 290.125 244.886 244.633 66.0933 45.2388 178.539 201.689
internal_count=2472 1350 1145 1122 281 205 841 957
is_linear=0
shrinkage=0.02


Tree=32
num_leaves=10
num_cat=0
split_feature=17 5 15 16 15 12 15 16 3
split_gain=385.571 163.164 65.8447 31.9348 113.353 10.8173 19.2528 0.767746 8.21709
threshold=0.48958332836627966 0.92692184448242199 0.38541665673255926 0.40625000000000006 0.27291667461395269 0.57916665077209484 0.33184523880481726 0.11458333209156991 0.20833333581686023
decision_type=2 2 2 2 2 2 2 2 2
left_child=3 2 -2 7 -5 6 -3 8 -1
right_child=1 5 -4 4 -6 -7 -8 -9 -10
leaf_value=-0.0080042205960268297 0.012631467079466311 0.027756175932266793 -0.028357251998701948 0.019908285481214056 -0.026136315777579942 0.0081089865579574826 0.0098896214704325709 -0.026246790983727678 -0.027363511043476407
leaf_weight=21.888933852314949 24.051453456282616 168.4969572275877 39.453720539808273 33.069235771894455 55.526274025440216 21.885156914591789 34.215370342135429 109.80182479321957 22.530999675393105
leaf_count=99 103 815 179 138 255 96 157 526 104
internal_value=-0.000200613 0.0153845 -0.0125683 -0.0187617 -0.00869607 0.0233976 0.024902 -0.0243219 -0.0186504
internal_weight=530.92 288.103 63.5052 242.817 88.5955 224.597 202.712 154.222 44.4199
internal_count=2472 1350 282 1122 393 1068 972 729 203
is_linear=0
shrinkage=0.02


Tree=33
num_leaves=10
num_cat=0
split_feature=16 6 6 13 12 19 13 12 6
split_gain=373.785 34.3569 22.2203 36.5769 110.956 44.4541 17.2259 28.9491 0.526463
threshold=0.48958332836627966 0.82369425892829906 0.81209269165992748 2.5000000000000004 0.55416667461395275 0.95488464832305919 2.5000000000000004 0.53750002384185802 0.65336349606513988
decision_type=2 2 2 2 2 2 2 2 2
left_child=1 6 3 4 8 -6 7 -1 -2
right_child=2 -3 -4 -5 5 -7 -8 -9 -10
leaf_value=-0.0017810384144003263 0.026756954942802655 0.00056794019641988856 0.026880117761080857 -0.0086116630567666715 0.012869822834172696 -0.020707853270955957 -0.026932297872456792 -0.024346150821219555 0.01840846276116094
leaf_weight=43.445768803358078 106.69784395396709 30.729849055409431 55.274731040000916 27.754595920443535 25.459426760673523 36.841143473982811 114.23584450781345 52.431817606091499 33.602001741528511
leaf_count=193 515 136 272 123 111 167 545 248 162
internal_value=-0.000198991 -0.0185474 0.0152134 0.0122233 0.0152041 -0.00668368 -0.0214273 -0.0144514 0.0250435
internal_weight=526.473 240.843 285.63 230.355 202.6 62.3006 210.113 95.8776 140.3
internal_count=2472 1122 1350 1078 955 278 986 441 677
is_linear=0
shrinkage=0.02


Tree=34
num_leaves=10
num_cat=0
split_feature=13 12 17 19 5 17 5 17 2
split_gain=199.044 201.374 120.6 78.4945 34.5151 30.2808 15.4361 4.72872 2.02517
threshold=3.5000000000000004 0.55416667461395275 0.40625000000000006 0.93861854076385509 0.9278998374938966 0.48958332836627966 0.93361040949821483 0.42708332836627966 0.15625000000000003
decision_type=2 2 2 2 2 2 2 2 2
left_child=1 2 -1 -3 -4 8 -5 -6 -2
right_child=5 3 4 6 7 -7 -8 -9 -10
leaf_value=-0.017641909605909147 -0.015948546407877927 0.01776715518695041 0 -0.027877444713729469 0.013150362299321317 0 -0.0072450544453813905 0.025998677373271203 -0.026594897957300998
leaf_weight=33.873255982995033 26.16500149667263 22.364789798855782 25.043722718954086 68.324153006076813 22.82330796122551 25.83309830725193 23.068775668740273 184.08706858754158 91.063118115067482
leaf_count=155 121 97 112 325 95 116 102 905 444
internal_value=-0.000195449 0.00734551 0.0168927 -0.0147427 0.0220758 -0.0202548 -0.0230208 0.0247477 -0.0245428
internal_weight=522.646 379.585 265.827 113.758 231.954 143.061 91.3929 206.91 117.228
internal_count=2472 1791 1267 524 1112 681 427 1000 565
is_linear=0
shrinkage=0.02


Tree=35
num_leaves=9
num_cat=0
split_feature=17 5 17 5 19 5 16 16
split_gain=345.058 147.56 34.4971 63.3812 22.8459 15.298 13.9136 0.699478
threshold=0.48958332836627966 0.92450398206710827 0.40625000000000006 0.93401587009429943 0.95488464832305919 0.93757218122482311 0.51041665673255932 0.11458333209156991
decision_type=2 2 2 2 2 2 2 2
left_child=2 4 7 -4 -2 6 -3 -1
right_child=1 5 3 -5 -6 -7 -8 -9
leaf_value=-0.01816465372497483 0.00089205669973533815 0.00066184911600201219 -0.022457236023536279 0.011000951108748356 -0.024065843350749076 0.025377977629008459 0.020867266248597575 -0.025803528355482299
leaf_weight=42.223256900906563 22.856912478804588 26.403263255953789 50.052583590149879 38.992102101445198 33.418958410620689 164.96959179639816 33.025868639349937 105.31519204378128
leaf_count=196 99 118 238 164 155 819 154 519
internal_value=-0.000119428 0.0148153 -0.0179095 -0.00762453 -0.0137412 0.0220948 0.0123808 -0.0238891
internal_weight=517.258 280.675 236.583 89.0447 56.2759 224.399 59.4291 147.538
internal_count=2462 1345 1117 402 254 1091 272 715
is_linear=0
shrinkage=0.02


Tree=36
num_leaves=10
num_cat=0
split_feature=16 5 16 5 19 12 13 16 19
split_gain=334.349 143.231 33.7501 61.3856 28.4133 12.0453 6.87956 0.727691 0.212908
threshold=0.48958332836627966 0.92650321125984203 0.40625000000000006 0.93401587009429943 0.95488464832305919 0.57916665077209484 2.5000000000000004 0.11458333209156991 0.98058068752288829
decision_type=2 2 2 2 2 2 2 2 2
left_child=2 4 7 8 -2 6 -3 -1 -4
right_child=1 5 3 -5 -6 -7 -8 -9 -10
leaf_value=-0.01792643969765521 0.0037972264176617449 0.026142199070440669 -0.01601654955468346 0.010793901897774617 -0.0228083814721835 0.0060912739048381136 0.014809974889100949 -0.025574776644244138 -0.026545580436412326
leaf_weight=41.944754108786583 25.51224111020565 154.08562164008617 24.355122357606888 38.964707672595978 36.820823282003403 20.634072154760361 41.353043287992477 104.15268145501614 25.294685617089272
leaf_count=196 111 778 114 164 171 91 194 519 124
internal_value=-0.000117658 0.014643 -0.0176989 -0.00750698 -0.0117152 0.022358 0.0239338 -0.0236517 -0.0221938
internal_weight=513.118 278.406 234.712 88.6145 62.3331 216.073 195.439 146.097 49.6498
internal_count=2462 1345 1117 402 282 1063 972 715 238
is_linear=0
shrinkage=0.02


Tree=37
num_leaves=9
num_cat=0
split_feature=17 8 15 15 15 17 15 15
split_gain=324.076 54.6405 239.205 33.7089 88.1269 47.078 4.13509 3.59614
threshold=0.48958332836627966 0.056372674182057388 0.34232954680919653 0.27291667461395269 0.16369047760963443 0.40625000000000006 0.26884920895099645 0.26547619700431829
decision_type=2 2 2 2 2 2 2 2
left_child=3 6 7 4 -1 -6 -2 -3
right_child=1 2 -4 -5 5 -7 -8 -9
leaf_value=-0.027287615020636147 0.026939919898922162 0.026615709790801405 -0.028291208365011124 -0.025830718115849371 -0.011057700220227821 0.022296358393996213 0.01389122541303143 0.015062409797799882
leaf_weight=60.589190438389778 95.800141677260399 76.384468257427216 51.577671065926552 107.22158543765545 31.663799926638603 33.360131412744522 22.681614488363266 29.699566781520844
leaf_count=292 489 371 235 530 155 140 110 140
internal_value=-0.000117305 0.0144738 0.00652058 -0.0174959 -0.0100756 0.00583 0.0247465 0.0237389
internal_weight=508.978 276.143 157.662 232.835 125.613 65.0239 118.482 106.084
internal_count=2462 1345 746 1117 587 295 599 511
is_linear=0
shrinkage=0.02


Tree=38
num_leaves=8
num_cat=0
split_feature=17 15 16 15 5 15 17
split_gain=314.46 320.549 32.175 113.624 2.05921 0.92858 10.2452
threshold=0.48958332836627966 0.34232954680919653 0.40625000000000006 0.27291667461395269 0.92692184448242199 0.16369047760963443 0.32291667163372045
decision_type=2 2 2 2 2 2 2
left_child=2 4 5 -4 -2 -1 -7
right_child=1 -3 3 -5 -6 6 -8
leaf_value=-0.027144978234625292 0.015792691216967199 -0.028121651316408126 0.020188134603230538 -0.025708771253813285 0.026283599907720761 -0.0097281154554305933 -0.025720093900531451
leaf_weight=58.539119929075241 24.306432008743286 55.361945435404778 34.649756267666817 52.92450475692749 193.75093734264374 32.829742804169655 51.842398703098297
leaf_count=286 105 253 146 256 987 162 267
internal_value=-0.00011403 0.0143336 -0.0173049 -0.00730044 0.0252829 -0.023191 -0.0199389
internal_weight=504.205 273.419 230.786 87.5743 218.057 143.211 84.6721
internal_count=2462 1345 1117 402 1092 715 429
is_linear=0
shrinkage=0.02


Tree=39
num_leaves=11
num_cat=0
split_feature=2 15 7 15 15 15 1 15 15 7
split_gain=208.138 147.717 121.954 79.4357 43.2258 38.7181 12.2237 11.4199 10.4967 2.96511
threshold=0.15625000000000003 0.14330357313156131 0.98753115534782421 0.34232954680919653 0.25198413431644445 0.16369047760963443 0.063433274626731886 0.27291667461395269 0.24340277910232547 0.98579862713813793
decision_type=2 2 2 2 2 2 2 2 2 2
left_child=1 -1 4 7 5 -2 -7 8 -4 -3
right_child=2 9 3 -5 -6 6 -8 -9 -10 -11
leaf_value=-0.026347415844178511 -0.025588608541411987 0.013706492506786993 0.0084897681524466768 -0.0271254674787802 -0.026110551772682879 0.013027103450342815 -0.006182896558231816 0.0016420993146432649 0.02559946417454749 0.026108393219106203
leaf_weight=25.39193831384182 26.896202221512794 19.852883279323578 31.439717784523964 21.556465297937393 128.63782629370689 26.000372976064682 23.649419322609901 24.483511716127396 39.282349497079849 132.07678711414337
leaf_count=121 139 95 150 94 645 127 118 113 193 667
internal_value=-0.000115783 0.0171874 -0.00973168 0.00642485 -0.0190093 -0.00663468 0.00354062 0.0144322 0.0184966 0.0247188
internal_weight=499.267 177.322 321.946 116.762 205.184 76.546 49.6498 95.2056 70.7221 151.93
internal_count=2462 883 1579 550 1029 384 245 456 343 762
is_linear=0
shrinkage=0.02


Tree=40
num_leaves=5
num_cat=0
split_feature=16 15 11 6
split_gain=326.813 339.203 25.7451 23.7526
threshold=0.42708332836627966 0.34232954680919653 0.79166665673255932 0.82369425892829906
decision_type=2 2 2 2
left_child=2 -2 3 -1
right_child=1 -3 -4 -5
leaf_value=-0.024502684269457193 0.024525332338213995 -0.027150883313165935 0.00026922427541899001 -0.0022864881947044931
leaf_weight=164.23371101915836 230.25717504322529 63.897455409169197 21.833652749657631 24.320583716034889
leaf_count=828 1170 299 102 112
internal_value=-0.00037738 0.0131783 -0.0193976 -0.0217698
internal_weight=504.543 294.155 210.388 188.554
internal_count=2511 1469 1042 940
is_linear=0
shrinkage=0.02


Tree=41
num_leaves=8
num_cat=0
split_feature=16 15 7 16 2 15 5
split_gain=316.789 329.368 27.8601 14.5786 5.96452 5.27189 6.48473
threshold=0.42708332836627966 0.34232954680919653 0.98825368285179149 0.36458332836627966 0.15625000000000003 0.26547619700431829 0.93757218122482311
decision_type=2 2 2 2 2 2 2
left_child=2 5 4 -4 -1 -2 -7
right_child=1 -3 3 -5 -6 6 -8
leaf_value=-0.01334741959634491 0.026299476271071862 -0.026869950729570255 -0.015421777023230783 0.0042673911520482062 -0.025899872046630183 0.0066668094366662736 0.022994433146719697
leaf_weight=29.78793653845787 175.43897527456284 63.290772914886475 32.019285216927528 24.752413645386696 122.13156801462173 21.732872858643532 30.638400048017502
leaf_count=144 912 299 147 104 647 100 158
internal_value=-0.000374459 0.0130497 -0.019168 -0.00656585 -0.0236728 0.0242966 0.0168454
internal_weight=499.792 291.101 208.691 56.7717 151.92 227.81 52.3713
internal_count=2511 1469 1042 251 791 1170 258
is_linear=0
shrinkage=0.02


Tree=42
num_leaves=6
num_cat=0
split_feature=15 15 3 2 15
split_gain=257.94 207.906 129.429 60.7447 26.6899
threshold=0.33630952239036566 0.16369047760963443 0.20833333581686023 0.23958333581686023 0.25198413431644445
decision_type=2 2 2 2 2
left_child=1 -1 3 4 -3
right_child=-2 2 -4 -5 -6
leaf_value=-0.026524617449694549 -0.026721903169906813 0.02443665998830535 -0.026586479038778543 -0.0099027960874458337 0.0090920495846553099
leaf_weight=59.303622931241989 113.62944284081459 200.45184755325317 27.606970265507698 27.148301035165787 66.682726874947548
leaf_count=300 568 1034 142 130 337
internal_value=-0.000370632 0.00748142 0.0138712 0.0178115 0.0207291
internal_weight=494.823 381.193 321.89 294.283 267.135
internal_count=2511 1943 1643 1501 1371
is_linear=0
shrinkage=0.02


Tree=43
num_leaves=9
num_cat=0
split_feature=17 2 15 15 2 16 15 19
split_gain=301.612 172.089 44.7973 29.2687 21.5438 21.5821 1.6828 0.262764
threshold=0.42708332836627966 0.17708333581686023 0.31696428358554846 0.40595237910747534 0.15625000000000003 0.19791666418313983 0.27291667461395269 0.97315317392349254
decision_type=2 2 2 2 2 2 2 2
left_child=4 2 -2 -3 5 -1 -6 -4
right_child=1 3 7 -5 6 -7 -8 -9
leaf_value=-0.019587824866676939 0.025349019859492256 0.0010045275161828593 0 -0.027253912949370386 -0.018411846127447389 0.0058152008189435844 -0.025694954442159253 0.0040688908209032546
leaf_weight=25.172888875007629 180.14945238828659 21.17052498459816 21.102070987224579 38.276347577571869 72.163947522640228 24.937026605010033 83.001991972327232 24.552764788269997
leaf_count=123 962 95 101 189 364 113 442 122
internal_value=-0.000369788 0.0128754 0.0208715 -0.0170094 -0.0188454 -0.00668835 -0.0225754 0.00261051
internal_weight=490.527 285.251 225.804 59.4469 205.276 50.1099 155.166 45.6548
internal_count=2511 1469 1185 284 1042 236 806 223
is_linear=0
shrinkage=0.02


Tree=44
num_leaves=6
num_cat=0
split_feature=15 17 7 17 7
split_gain=245.388 381.729 24.2532 14.7318 5.06984
threshold=0.33630952239036566 0.40625000000000006 0.9803278148174287 0.48958332836627966 0.98825368285179149
decision_type=2 2 2 2 2
left_child=1 4 -3 -4 -1
right_child=-2 2 3 -5 -6
leaf_value=-0.025140139842684216 -0.026337455641865688 0.00058331952193667661 0.010305903120777067 0.025233472998261366 -0.012912167696646997
leaf_weight=87.63819694519043 111.35666760802269 23.266153186559677 38.480420604348183 195.72534561157227 29.665106564760208
leaf_count=475 568 112 167 1052 137
internal_value=-0.000366263 0.00734687 0.0209891 0.0229201 -0.0223521
internal_weight=486.132 374.775 257.472 234.206 117.303
internal_count=2511 1943 1331 1219 612
is_linear=0
shrinkage=0.02


Tree=45
num_leaves=10
num_cat=0
split_feature=2 15 15 15 7 5 11 5 6
split_gain=189.806 145.165 118.423 90.3952 35.0876 19.516 16.0909 8.88436 0.687971
threshold=0.15625000000000003 0.27291667461395269 0.14330357313156131 0.16369047760963443 0.98825368285179149 0.93905058503150951 0.79166665673255932 0.93102723360061657 0.66965538263320934
decision_type=2 2 2 2 2 2 2 2 2
left_child=2 3 -1 -2 5 -5 -3 -4 -6
right_child=1 6 7 4 8 -7 -8 -9 -10
leaf_value=-0.025194170465367531 -0.025162704287343417 -0.025699024059145596 0.0097065289184624145 -0.012224141674420524 0.027276547367736194 0.012159213181291208 -0.009386572193080962 0.025838114751542449 0.01683760557157804
leaf_weight=21.697055205702782 29.326525866985321 124.47096388041973 21.907117232680321 22.935731261968613 35.890492230653763 27.792643532156944 37.259055554866791 125.4577130228281 26.969346955418587
leaf_count=109 157 645 107 118 183 146 182 677 140
internal_value=0.000181013 -0.00920028 0.0171581 0.00536142 0.0135676 0.000724982 -0.0221447 0.0236564 0.0234448
internal_weight=473.707 304.645 169.062 142.915 113.588 50.7284 161.73 147.365 62.8598
internal_count=2464 1571 893 744 587 264 827 784 323
is_linear=0
shrinkage=0.02


Tree=46
num_leaves=10
num_cat=0
split_feature=5 17 19 5 5 8 8 17 8
split_gain=141.279 243.34 56.6232 15.9622 10.1379 15.1891 4.06739 2.93468 2.81071
threshold=0.93178501725196849 0.40625000000000006 0.93527439236640941 0.93958547711372387 0.92650321125984203 0.064364574849605574 0.056173246353864677 0.51041665673255932 0.070855729281902327
decision_type=2 2 2 2 2 2 2 2 2
left_child=2 -2 -1 8 -4 -6 -5 -8 -3
right_child=1 3 4 6 5 -7 7 -9 -10
leaf_value=0.011333167272029938 -0.020355561535575942 0.0053910120928340631 -0.023967638945823197 0.024906474209680993 -0.022031908079292607 0.0014151317254625284 0.0090149932793833574 0.021781111528722055 0.016130396488821822
leaf_weight=25.840185135602951 85.319679439067841 40.346991702914238 94.570777639746666 116.39828319847584 20.611442968249321 19.371154636144638 26.071850255131721 21.704327762126923 19.401018336415291
leaf_count=120 444 200 502 632 114 97 135 120 100
internal_value=0.000177873 0.00811446 -0.0149556 0.0190934 -0.0201981 -0.0104267 0.022416 0.0155522 0.00941559
internal_weight=469.636 309.242 160.394 223.922 134.553 39.9826 164.174 47.7762 59.748
internal_count=2464 1631 833 1187 713 211 887 255 300
is_linear=0
shrinkage=0.02


Tree=47
num_leaves=7
num_cat=0
split_feature=15 17 15 7 7 5
split_gain=244.711 329.003 30.0755 26.3365 9.55183 0.92429
threshold=0.33630952239036566 0.40625000000000006 0.27291667461395269 0.99458870291709911 0.98825368285179149 0.9266420602798463
decision_type=2 2 2 2 2 2
left_child=1 4 5 -4 -1 -3
right_child=-2 2 3 -5 -6 -7
leaf_value=-0.024351834613336402 -0.026559102192287926 0.014963375985341934 -0.00861527251517283 0.018325010755838179 -0.0092545092929590383 0.025304013054171876
leaf_weight=80.47417189180851 104.64628720283508 19.19159223139286 22.800175994634628 34.110592693090439 29.471080765128136 175.06301747262478
leaf_count=452 544 87 111 173 138 959
internal_value=0.000179282 0.00803498 0.0206832 0.00722417 -0.0206051 0.0244667
internal_weight=465.757 361.111 251.165 56.9108 109.945 194.255
internal_count=2464 1920 1330 284 590 1046
is_linear=0
shrinkage=0.02


Tree=48
num_leaves=8
num_cat=0
split_feature=16 15 2 15 6 7 15
split_gain=227.649 271.142 38.5827 54.9546 10.7536 4.33311 2.95999
threshold=0.46875000000000006 0.34232954680919653 0.15625000000000003 0.16369047760963443 0.81209269165992748 0.99936589598655712 0.26547619700431829
decision_type=2 2 2 2 2 2 2
left_child=2 6 3 -1 5 -4 -2
right_child=1 -3 4 -5 -6 -7 -8
leaf_value=-0.024716826550165431 0.025224706424455793 -0.026212100787737044 -0.025089604364202784 0.01627270292479318 -0.005302378801118203 -0.013523512052346871 0.016764139029600857
leaf_weight=21.251213207840919 154.74909840524197 54.955572262406349 101.85023060441017 30.691508740186691 20.067835360765457 29.517023131251335 47.80365027487278
leaf_count=110 877 272 582 139 101 135 248
internal_value=0.000175394 0.0126888 -0.0155553 -0.000269591 -0.0206309 -0.0227637 0.0234184
internal_weight=460.886 257.508 203.378 51.9427 151.435 131.367 202.553
internal_count=2464 1397 1067 249 818 717 1125
is_linear=0
shrinkage=0.02


Tree=49
num_leaves=7
num_cat=0
split_feature=16 15 2 15 7 5
split_gain=221.016 263.655 37.6252 53.2127 14.9666 4.26868
threshold=0.46875000000000006 0.34232954680919653 0.15625000000000003 0.16369047760963443 0.98825368285179149 0.92843487858772289
decision_type=2 2 2 2 2 2
left_child=2 5 3 -1 -4 -2
right_child=1 -3 4 -5 -6 -7
leaf_value=-0.02451355874456411 0.013042798553242013 -0.025969893756808211 -0.024364560723332707 0.015943456755785606 -0.0088661668867163063 0.024589096423406693
leaf_weight=21.009605556726456 26.497700706124306 54.373933717608452 109.77258589863777 30.719172090291977 40.177777960896492 173.65902379155159
leaf_count=110 122 272 634 139 184 1003
internal_value=0.000169429 0.0125828 -0.0153831 -0.000262106 -0.0204307 0.0232324
internal_weight=456.21 254.531 201.679 51.7288 149.95 200.157
internal_count=2464 1397 1067 249 818 1125
is_linear=0
shrinkage=0.02


Tree=50
num_leaves=10
num_cat=0
split_feature=16 8 7 6 11 6 11 8 7
split_gain=231.254 45.663 118.464 22.5455 26.0564 3.51503 17.8555 1.70081 1.60295
threshold=0.42708332836627966 0.056806141510605819 0.98918655514717113 0.82369425892829906 0.79166665673255932 1.0000000180025095e-35 0.79166665673255932 0.043702373281121261 0.9803278148174287
decision_type=2 2 2 2 2 2 2 2 2
left_child=3 -2 8 4 7 -4 -7 -1 -3
right_child=1 2 5 -5 -6 6 -8 -9 -10
leaf_value=-0.01251486010678806 0.022053746575747501 -0.024291932171083556 0.025682621207378662 0.00019616204364483327 0.0020021510232468838 0.00028915761949299332 0.022292637788803634 -0.023100108848967803 -0.013064257371446173
leaf_weight=19.980867192149162 110.76019941270351 23.108658134937286 27.272994816303253 25.792573869228363 18.840054765343666 25.011337086558342 43.144179239869118 129.48957657814026 30.013169899582863
leaf_count=106 644 124 141 126 92 134 242 719 149
internal_value=0 0.0123378 0.00486075 -0.0164627 -0.0191197 0.0182284 0.0146281 -0.0219106 -0.0186766
internal_weight=453.414 259.311 148.55 194.103 168.31 95.4285 68.1555 149.47 53.1218
internal_count=2477 1434 790 1043 917 517 376 825 273
is_linear=0
shrinkage=0.02


Tree=51
num_leaves=8
num_cat=0
split_feature=17 15 7 17 15 7 6
split_gain=224.089 247.945 29.216 12.9519 8.33628 12.8002 7.96161
threshold=0.42708332836627966 0.33630952239036566 0.99302485585212719 0.40625000000000006 0.26547619700431829 0.99936589598655712 0.81952184438705455
decision_type=2 2 2 2 2 2 2
left_child=2 4 6 -4 -2 -6 -1
right_child=1 -3 3 -5 5 -7 -8
leaf_value=-0.023068471871496968 0.025031946070812789 -0.024974768216316005 -0.011874504238442643 0.0073206502870692422 0 0.021802343549214696 -0.0066778424328778766
leaf_weight=120.46962663531303 152.88162903487682 54.96092189848423 30.60110941529274 23.259955942630768 19.148461684584618 30.004747852683067 18.246384724974632
leaf_count=702 895 282 148 100 94 163 93
internal_value=0 0.0122051 -0.0162638 -0.00323816 0.0224911 0.013848 -0.0211189
internal_weight=449.573 256.996 192.577 53.8611 202.035 49.1532 138.716
internal_count=2477 1434 1043 248 1152 257 795
is_linear=0
shrinkage=0.02


Tree=52
num_leaves=10
num_cat=0
split_feature=7 16 8 16 8 6 8 16 5
split_gain=171.228 74.1273 87.2607 63.7523 8.64053 7.89983 55.3799 5.8256 0.951287
threshold=0.98825368285179149 0.48958332836627966 0.056806141510605819 0.40625000000000006 0.042648956179618842 0.65336349606513988 0.047778137028217323 0.51041665673255932 0.94164395332336437
decision_type=2 2 2 2 2 2 2 2 2
left_child=1 4 8 -2 -1 -5 -7 -4 -3
right_child=3 2 7 5 -6 6 -8 -9 -10
leaf_value=-0.0097001639394011883 -0.011673467955834524 0.012609868254979468 -0.023789458914949602 0.021569257625525341 -0.02345537671882196 0.024200629072579333 -0.01488979630377248 -0.0070866650815882342 0.024033959285675557
leaf_weight=30.912488460540771 32.856955841183662 18.738468989729881 26.614965066313744 111.23089650273323 111.14527153968811 43.166844576597214 20.108132272958755 19.698709920048714 30.413461685180664
leaf_count=162 160 99 137 621 661 258 94 103 182
internal_value=0 -0.01157 0.00186864 0.0132465 -0.0206907 0.0180923 0.0114285 -0.0174079 0.0204158
internal_weight=444.886 237.523 95.4656 207.363 142.058 174.506 63.275 46.3137 49.1519
internal_count=2477 1344 521 1133 823 973 352 240 281
is_linear=0
shrinkage=0.02


Tree=53
num_leaves=7
num_cat=0
split_feature=15 3 15 13 8 12
split_gain=193.586 170.508 91.0497 40.4634 39.6772 38.1086
threshold=0.33630952239036566 0.20833333581686023 0.16369047760963443 3.5000000000000004 0.045557647943496711 0.66250002384185802
decision_type=2 2 2 2 2 2
left_child=1 2 -1 5 -5 -4
right_child=-2 -3 3 4 -6 -7
leaf_value=-0.022652465028865684 -0.025044818702062158 -0.025566831283461631 0.022639039682536569 0.017418437423492673 -0.021849568718188966 -0.0021717808619734864
leaf_weight=24.814998298883438 95.546084389090538 53.051365166902542 202.08128732442856 19.400766715407372 19.566012397408485 26.362086892127991
leaf_count=139 528 305 1165 101 109 130
internal_value=0 0.00698123 0.0130253 0.0164827 -0.00185176 0.0196917
internal_weight=440.823 345.277 292.225 267.41 38.9668 228.443
internal_count=2477 1949 1644 1505 210 1295
is_linear=0
shrinkage=0.02


Tree=54
num_leaves=10
num_cat=0
split_feature=16 2 6 11 2 8 11 19 2
split_gain=206.973 125.995 21.3114 25.002 13.9 13.8086 23.7529 9.30047 4.53048
threshold=0.42708332836627966 0.17708333581686023 0.82369425892829906 0.79166665673255932 0.15625000000000003 0.056173246353864677 0.79166665673255932 0.96396103501319896 0.15625000000000003
decision_type=2 2 2 2 2 2 2 2 2
left_child=2 4 3 8 -2 -6 -7 -3 -1
right_child=1 7 -4 -5 5 6 -8 -9 -10
leaf_value=-0.012132822380855952 0.024195533023146695 -0.0046546431651245607 0.00043544582133263408 0.00231760884937043 0.020633694415300191 -0.009503904265034762 0.017751610786062366 -0.023953133297267809 -0.023424152198997905
leaf_weight=29.94668573141098 106.32944376766682 20.636012330651283 25.422808483242989 18.529199033975601 45.35900504887104 22.835003018379211 25.578538864850998 28.105697199702263 113.6310917288065
leaf_count=156 651 104 126 92 269 117 140 153 669
internal_value=0 0.0119309 -0.0158269 -0.0184869 0.0189891 0.0126813 0.0045592 -0.0164426 -0.0213076
internal_weight=436.373 248.844 187.53 162.107 200.102 93.7725 48.4135 48.7417 143.578
internal_count=2477 1434 1043 917 1177 526 257 257 825
is_linear=0
shrinkage=0.02


Tree=55
num_leaves=7
num_cat=0
split_feature=3 15 15 15 15 13
split_gain=125.528 242.885 89.6624 48.058 19.1374 5.6478
threshold=0.20833333581686023 0.33630952239036566 0.16369047760963443 0.25198413431644445 0.31101191043853765 3.5000000000000004
decision_type=2 2 2 2 2 2
left_child=1 2 -1 5 -5 -4
right_child=-2 -3 3 4 -6 -7
leaf_value=-0.023826596836879325 -0.025480441151385685 -0.025053043982855377 0.023421458003237538 -0.0084883777543735914 0.011470136124887006 0.010271396014830804
leaf_weight=22.680947124958038 65.23493766784668 84.855365619063377 165.392249584198 31.97605936229229 43.55001862347126 22.894526451826096
leaf_count=129 385 476 974 175 240 123
internal_value=-6.67513e-05 0.0044004 0.0132505 0.0165916 0.0027583 0.0219909
internal_weight=436.584 371.349 286.494 263.813 75.5261 188.287
internal_count=2502 2117 1641 1512 415 1097
is_linear=0
shrinkage=0.02


Tree=56
num_leaves=8
num_cat=0
split_feature=16 12 7 19 5 0 2
split_gain=190.361 73.713 29.3016 27.8938 21.3916 18.6221 16.8297
threshold=0.48958332836627966 0.55416667461395275 0.98753115534782421 0.95488464832305919 0.93253466486930858 0.99365895986557018 0.15625000000000003
decision_type=2 2 2 2 2 2 2
left_child=2 4 6 -3 -2 -4 -1
right_child=1 3 5 -5 -6 -7 -8
leaf_value=-0.0050529311152134587 0.0030097612050400354 0.0083468526334588254 -0.014995599980801928 -0.019094167865450828 0.021944825413228806 0.0065739270396155828 -0.023210652876139722
leaf_weight=29.610550358891487 32.062422066926956 24.286070257425308 26.998990386724472 32.997441858053207 142.96950635313988 35.235886722803116 108.17296884953976
leaf_count=156 169 122 129 180 907 167 672
internal_value=-6.80689e-05 0.0121758 -0.0143783 -0.00717345 0.0186267 -0.00255634 -0.0195171
internal_weight=432.334 232.315 200.018 57.2835 175.032 62.2349 137.784
internal_count=2502 1378 1124 302 1076 296 828
is_linear=0
shrinkage=0.02


Tree=57
num_leaves=10
num_cat=0
split_feature=17 5 7 2 17 7 13 5 2
split_gain=184.494 94.2345 48.1523 39.962 49.7829 11.2323 7.87025 0.787293 5.17774
threshold=0.48958332836627966 0.92906057834625255 0.98918655514717113 0.15625000000000003 0.36458332836627966 0.99542099237442028 3.5000000000000004 0.93958547711372387 0.15625000000000003
decision_type=2 2 2 2 2 2 2 2 2
left_child=3 2 -2 4 -1 -5 7 8 -3
right_child=1 6 -4 5 -6 -7 -8 -9 -10
leaf_value=-0.015455825262720524 -0.022974351138831249 0.023286476571628949 0.011898413629735682 -0.02279944325481122 0.02305963135163331 -0.0082599321458901274 0.0044579225895179635 0.023140575820918375 0.0073661321325482389
leaf_weight=31.107945442199707 37.266583114862442 22.058638885617256 25.379366174340248 111.24012926220894 22.032026365399361 34.087418928742409 15.923764184117315 107.2807555347681 22.381602004170418
leaf_count=169 205 138 128 693 100 162 85 702 120
internal_value=-6.73493e-05 0.0120413 -0.00856735 -0.0142077 0.000274386 -0.0196056 0.0198661 0.0213125 0.0160472
internal_weight=428.758 230.291 62.6459 198.468 53.14 145.328 167.645 151.721 44.4402
internal_count=2502 1378 333 1124 269 855 1045 960 258
is_linear=0
shrinkage=0.02


Tree=58
num_leaves=10
num_cat=0
split_feature=2 17 7 13 5 17 0 6 8
split_gain=145.705 97.4019 89.0662 53.0036 30.7364 39.3025 20.7918 3.54254 0.572509
threshold=0.15625000000000003 0.40625000000000006 0.98825368285179149 2.5000000000000004 0.94051119685173046 0.40625000000000006 0.99365895986557018 0.65336349606513988 0.048096351325511939
decision_type=2 2 2 2 2 2 2 2 2
left_child=1 -1 4 6 8 -6 -4 -8 -2
right_child=2 -3 3 -5 5 -7 7 -9 -10
leaf_value=-0.014603346637737651 -0.013876884684084325 0.024026486036550047 -0.0043112575279961934 -0.020148224401637244 -0.022115106157937357 0.015140684053901197 0.02222519331198947 0.0089153931298923128 -0.023953215570889759
leaf_weight=31.989844232797623 18.047630235552788 118.5067945420742 18.736650437116623 23.499160096049309 20.90906286239624 22.130600452423096 43.869791701436043 19.443846687674522 107.47928650677204
leaf_count=174 108 731 100 116 131 128 240 113 661
internal_value=-6.27121e-05 0.015641 -0.00878268 0.00545099 -0.0177928 -0.00259557 0.0131777 0.0186509 -0.0227837
internal_weight=424.613 150.497 274.116 105.549 168.567 43.0397 82.0503 63.3136 125.527
internal_count=2502 905 1597 569 1028 259 453 353 769
is_linear=0
shrinkage=0.02


Tree=59
num_leaves=7
num_cat=0
split_feature=15 17 7 13 6 15
split_gain=190.138 259.128 26.4395 14.3964 3.21462 1.68617
threshold=0.33630952239036566 0.40625000000000006 0.9803278148174287 3.5000000000000004 0.65336349606513988 0.27291667461395269
decision_type=2 2 2 2 2 2
left_child=1 4 -3 5 -1 -4
right_child=-2 2 3 -5 -6 -7
leaf_value=-0.0085889904288179528 -0.024805862317611789 -0.0017243987622007359 0.024284499433444382 0.002464937092604186 -0.021458518659718376 0.016104672964968498
leaf_weight=16.872088819742203 95.288299143314362 20.426823154091835 149.40348674356937 17.715540066361427 82.155315607786179 38.593249708414078
leaf_count=96 561 107 928 92 501 217
internal_value=-6.43329e-05 0.00717854 0.0190161 0.0211707 -0.0195736 0.0228052
internal_weight=420.455 325.167 226.139 205.712 99.0274 187.997
internal_count=2502 1941 1344 1237 597 1145
is_linear=0
shrinkage=0.02


Tree=60
num_leaves=8
num_cat=0
split_feature=16 15 6 6 15 5 2
split_gain=190.83 193.425 24.2196 13.1433 14.8443 6.38208 0.878769
threshold=0.46875000000000006 0.34232954680919653 0.82369425892829906 0.65336349606513988 0.25198413431644445 0.92341819405555736 0.15625000000000003
decision_type=2 2 2 2 2 2 2
left_child=2 5 3 4 -1 -2 -5
right_child=1 -3 -4 6 -6 -7 -8
leaf_value=0.0041752056887755171 0.0071708656147939365 -0.023502308024190594 0.00275128504248958 -0.014023372130281405 -0.019203758832104154 0.022868504665533539 -0.023054064912858767
leaf_weight=20.037967339158058 16.385222807526588 46.95370027422905 23.705925837159157 24.786416441202164 19.679558783769608 162.94162528216839 95.196059003472328
leaf_count=102 77 260 121 134 117 1056 597
internal_value=-0.000131226 0.0120853 -0.0152958 -0.0180996 -0.00710474 0.0215928 -0.0214851
internal_weight=409.686 226.281 183.406 159.7 39.7175 179.327 119.982
internal_count=2464 1393 1071 950 219 1133 731
is_linear=0
shrinkage=0.02


Tree=61
num_leaves=9
num_cat=0
split_feature=17 5 7 7 12 6 18 5
split_gain=185.245 89.9147 36.3817 24.2446 10.4345 7.98992 3.96269 3.69664
threshold=0.46875000000000006 0.92650321125984203 0.98918655514717113 0.98825368285179149 0.57916665077209484 0.81478682160377514 54.500000000000007 0.93232175707817089
decision_type=2 2 2 2 2 2 2 2
left_child=3 2 -2 5 7 -1 -5 -3
right_child=1 4 -4 6 -6 -7 -8 -9
leaf_value=-0.022277753621827889 -0.023288330689181916 0.0092014298408241175 0.009545179823371476 0.0021239126982529116 0.003393953030668312 -0.0063295085553678699 -0.0080385609127912143 0.022176790924481705
leaf_weight=106.00332722067833 32.729566961526871 17.497105121612549 20.727235391736031 22.354779705405235 18.538408994674683 19.552386283874512 33.990146443247795 134.0027974396944
leaf_count=694 190 97 105 106 98 106 165 903
internal_value=-0.000130959 0.0119928 -0.0102488 -0.0151205 0.0191211 -0.0200219 -0.00369112 0.0208795
internal_weight=405.396 223.495 53.4568 181.901 170.038 125.556 56.3449 151.5
internal_count=2464 1393 295 1071 1098 800 271 1000
is_linear=0
shrinkage=0.02


Tree=62
num_leaves=12
num_cat=0
split_feature=4 7 8 0 14 6 8 1 8 6 8
split_gain=64.2829 92.3615 60.9957 56.7455 19.5068 9.96644 22.6319 5.94999 4.56768 7.92572 0.604766
threshold=0.99365895986557018 0.98918655514717113 0.045557647943496711 0.98407599329948436 2.0499999523162846 0.65336349606513988 0.068952728062868132 0.065662145614624037 0.11112366616725923 0.65336349606513988 0.051834190264344222
decision_type=2 2 2 2 2 2 2 2 2 2 2
left_child=-1 2 4 -3 -2 6 -4 -6 9 -5 -7
right_child=1 3 5 8 7 10 -8 -9 -10 -11 -12
leaf_value=-0.023469597106466206 -0.0098092644487933183 -0.014511331756163494 0.0085209949573375396 0.019443363442106475 0.01978795535795114 -0.013508785126988594 -0.01885578171332955 0.0029787555631534618 0.025037196473525206 0.0084250922927555857 -0.024530186483306845
leaf_weight=41.406082600355148 16.584943607449532 25.419990658760071 17.194598942995071 69.365308940410614 29.955589383840561 17.118389055132866 31.83080081641674 16.362805798649788 30.735982611775398 59.761517345905304 45.906351983547211
leaf_count=266 100 132 101 443 188 112 191 101 172 363 295
internal_value=-0.000128214 0.00255686 -0.00777263 0.0124072 0.00769556 -0.0166244 -0.00887578 0.0144609 0.0168755 0.0146016 -0.0221068
internal_weight=401.642 360.236 174.953 185.283 62.9033 112.05 49.0254 46.3184 159.863 129.127 63.0247
internal_count=2464 2198 1088 1110 389 699 292 289 978 806 407
is_linear=0
shrinkage=0.02


Tree=63
num_leaves=8
num_cat=0
split_feature=15 16 15 16 15 16 12
split_gain=158.592 235.679 26.7686 19.5703 2.89455 10.8516 2.38412
threshold=0.33630952239036566 0.40625000000000006 0.27291667461395269 0.51041665673255932 0.16369047760963443 0.32291667163372045 0.57916665077209484
decision_type=2 2 2 2 2 2 2
left_child=1 4 6 -4 -1 -6 -3
right_child=-2 2 3 -5 5 -7 -8
leaf_value=-0.023831670454921187 -0.024076081889603182 0.02329405901945257 -0.0034056866741005482 0.020939774031841007 -0.0024606271327476761 -0.022246125425631338 0.011446556213547213
leaf_weight=46.23664753139019 85.946734204888344 144.34855146706104 34.208592683076859 19.343013122677803 22.136305019259453 28.685297012329102 17.683645963668823
leaf_count=291 527 938 183 117 127 188 93
internal_value=-0.00012685 0.00644891 0.0181255 0.005244 -0.0192033 -0.0142279 0.0222019
internal_weight=398.589 312.642 215.584 53.5516 97.0582 50.8216 162.032
internal_count=2464 1937 1331 300 606 315 1031
is_linear=0
shrinkage=0.02


Tree=64
num_leaves=9
num_cat=0
split_feature=7 8 3 6 8 2 2 2
split_gain=130.826 62.5809 47.8493 32.4854 77.406 24.4785 10.1643 4.01637
threshold=0.98753115534782421 0.045557647943496711 0.20833333581686023 0.65336349606513988 0.049680341035127647 0.15625000000000003 0.17708333581686023 0.15625000000000003
decision_type=2 2 2 2 2 2 2 2
left_child=1 2 7 6 -5 -3 -2 -1
right_child=3 5 -4 4 -6 -7 -8 -9
leaf_value=0.021518398610425017 0.021895510217881116 0 -0.022518041901628795 0.017695101755743289 -0.022699835684951226 -0.022436434831675147 0.0041990471898815922 0.0078876099708555577
leaf_weight=22.449170768260956 89.24774968624115 24.301021724939346 17.724992349743843 47.706546865403652 29.967191055417061 116.15697583556175 19.222522065043449 27.453360974788666
leaf_count=141 574 143 114 309 152 765 97 169
internal_value=-0.000127771 -0.0110498 0.00447878 0.0119686 0.00176574 -0.0186467 0.0190091 0.0147147
internal_weight=394.23 208.086 67.6275 186.144 77.6737 140.458 108.47 49.9025
internal_count=2464 1332 424 1132 461 908 671 310
is_linear=0
shrinkage=0.02


Tree=65
num_leaves=9
num_cat=0
split_feature=17 5 7 0 7 5 8 5
split_gain=151.285 115.686 60.786 12.537 8.55591 5.60282 1.34901 1.01394
threshold=0.40625000000000006 0.93178501725196849 0.99542099237442028 0.98407599329948436 0.98825368285179149 0.93662413954734813 0.052887309342622764 0.92275339365005504
decision_type=2 2 2 2 2 2 2 2
left_child=4 2 7 -3 -1 -5 -7 -2
right_child=1 3 -4 5 -6 6 -8 -9
leaf_value=-0.022675095658182966 -0.023996501339267368 0.0014492927600785652 0.011368773768551353 0.0083556097595602861 -0.00884512185473821 0.023503077104267082 0.016344747806143742 -0.013219516839377379
leaf_weight=81.870372503995895 42.477806203067303 20.650801360607147 34.519422501325607 24.621456958353519 32.207796066999435 82.818966329097748 59.042952693998814 20.417460791766644
leaf_count=568 274 115 184 144 166 554 383 120
internal_value=0.000253736 0.00810446 -0.00937494 0.0173113 -0.0190551 0.0191391 0.020799 -0.0210727
internal_weight=398.627 284.549 97.4147 187.134 114.078 166.483 141.862 62.8953
internal_count=2508 1774 578 1196 734 1081 937 394
is_linear=0
shrinkage=0.02


Tree=66
num_leaves=10
num_cat=0
split_feature=7 0 2 6 2 13 13 12 13
split_gain=130.409 58.4879 53.6162 22.2562 16.1679 23.2829 16.1215 2.27489 15.3792
threshold=0.98753115534782421 0.98407599329948436 0.15625000000000003 0.81478682160377514 0.17708333581686023 2.5000000000000004 3.5000000000000004 0.50416666269302379 3.5000000000000004
decision_type=2 2 2 2 2 2 2 2 2
left_child=2 -2 6 7 5 -3 -1 8 -4
right_child=1 4 3 -5 -6 -7 -8 -9 -10
leaf_value=0.01537375118812234 -0.014281475954906576 0.02231057056776831 -0.0041053524301580728 0.0020051209692086335 0 -0.00071488646032446092 -0.0064614889969582283 -0.024565170922702197 -0.022928017561834112
leaf_weight=31.484024062752724 27.035020023584366 123.24157199263573 30.5536715015769 19.837145566940308 21.594514518976212 18.444349691271782 20.871149465441704 48.691062644124031 53.137962363660336
leaf_count=198 144 818 187 125 110 100 124 326 376
internal_value=0.000250418 0.0121828 -0.0107582 -0.0167713 0.0167466 0.019189 0.00633643 -0.0197288 -0.0164221
internal_weight=394.89 190.315 204.575 152.22 163.28 141.686 52.3552 132.383 83.6916
internal_count=2508 1172 1336 1014 1028 918 322 889 563
is_linear=0
shrinkage=0.02


Tree=67
num_leaves=10
num_cat=0
split_feature=17 17 13 11 19 0 0 17 11
split_gain=145.173 30.9896 30.8219 24.758 14.6402 11.1918 7.94115 3.14589 0.775403
threshold=0.40625000000000006 0.51041665673255932 3.5000000000000004 0.70833334326744091 0.98709622025489818 0.99365895986557018 0.99365895986557018 0.11458333209156991 0.54166665673255932
decision_type=2 2 2 2 2 2 2 2 2
left_child=7 2 3 8 -4 -5 -3 -1 -2
right_child=1 6 4 5 -6 -7 -8 -9 -10
leaf_value=-0.011663640513369131 0.021706021075845201 0.0062579011169023461 -0.024762525655028792 -0.012327726536398291 0 0.004354102145212123 0.019671971021569475 -0.02152168708079295 0.012367900501360109
leaf_weight=33.910935588181019 23.588164165616035 30.494865514338017 19.543736830353737 21.548532471060753 16.950007095932961 54.558603368699551 79.79051998257637 78.119934879243374 33.26684682071209
leaf_count=203 140 202 117 126 97 332 549 531 211
internal_value=0.000242218 0.00799711 0.00245647 0.00702778 -0.0134085 -0.000208338 0.0162321 -0.0188443 0.016896
internal_weight=391.772 279.741 169.456 132.962 36.4937 76.1071 110.285 112.031 56.855
internal_count=2508 1774 1023 809 214 458 751 734 351
is_linear=0
shrinkage=0.02


Tree=68
num_leaves=9
num_cat=0
split_feature=15 16 13 0 15 13 15 15
split_gain=157.876 225.847 16.4194 11.1159 5.02911 4.21125 10.2362 2.82994
threshold=0.33630952239036566 0.40625000000000006 3.5000000000000004 0.98407599329948436 0.16369047760963443 4.5000000000000009 0.26884920895099645 0.27291667461395269
decision_type=2 2 2 2 2 2 2 2
left_child=1 4 3 -3 -1 6 -6 -5
right_child=-2 2 -4 7 5 -7 -8 -9
leaf_value=-0.023529238496290912 -0.023758196104799838 0.0042230798072490682 0.0017705024326541746 0.024179428334997512 0.002909007100291008 -0.021386366452726135 -0.017621288801484503 0.014858596990648509
leaf_weight=45.851526044309139 84.349008105695248 18.26006780564785 23.071421220898628 130.75300496071577 16.964601024985313 15.946951255202292 17.622853554785252 36.146451957523823
leaf_count=301 538 103 126 893 95 118 114 220
internal_value=0.000238891 0.00700517 0.018743 0.0207295 -0.0180798 -0.0123865 -0.00719072 0.0223804
internal_weight=388.966 304.617 208.231 185.16 96.3859 50.5344 34.5875 166.899
internal_count=2508 1970 1342 1216 628 327 209 1113
is_linear=0
shrinkage=0.02


Tree=69
num_leaves=9
num_cat=0
split_feature=17 5 15 15 15 15 17 16
split_gain=137.075 107.447 74.4372 70.495 6.7221 5.28535 6.78245 3.27221
threshold=0.40625000000000006 0.93178501725196849 0.27291667461395269 0.34232954680919653 0.34232954680919653 0.27291667461395269 0.51041665673255932 0.11458333209156991
decision_type=2 2 2 2 2 2 2 2
left_child=7 2 -2 5 -4 -3 -7 -1
right_child=1 3 4 -5 -6 6 -8 -9
leaf_value=-0.011259836974971167 0.018753276435619918 0.022997318551458257 -0.0066130774430265497 -0.020988330700983635 -0.023890361205159607 0.0020178235018668798 0.021107479832287751 -0.021270759891606476
leaf_weight=33.31084693223238 25.877841025590897 129.77316356450319 16.216697186231613 16.531927034258842 52.363784030079842 18.063281297683716 16.32988840341568 76.203997552394867
leaf_count=203 143 903 86 82 349 101 110 531
internal_value=0.000234689 0.00781816 -0.00926779 0.0168616 -0.0202461 0.0208983 0.011987 -0.0185362
internal_weight=384.671 275.157 94.4583 180.698 68.5805 164.166 34.3932 109.515
internal_count=2508 1774 578 1196 435 1114 211 734
is_linear=0
shrinkage=0.02


Tree=70
num_leaves=11
num_cat=0
split_feature=2 15 15 7 15 7 8 15 8 15
split_gain=120.139 81.9777 78.5038 36.472 18.5708 14.2053 13.5092 4.40162 0.425626 9.80839
threshold=0.15625000000000003 0.27291667461395269 0.16369047760963443 0.98825368285179149 0.16369047760963443 0.99936589598655712 0.050240525975823409 0.25198413431644445 0.077722076326608672 0.24340277910232547
decision_type=2 2 2 2 2 2 2 2 2 2
left_child=2 3 -1 4 -2 -3 -6 -4 9 -5
right_child=1 5 7 8 6 -7 -8 -9 -10 -11
leaf_value=-0.021821759230692291 -0.021953194143062599 -0.023343384436714364 0.024462503234985722 0 0.010763432609693794 -0.0068780913820735406 -0.011819817589345329 0.012499678993329089 0.021538665369660807 0.021100323398387705
leaf_weight=18.064561828970909 19.881742678582668 94.331396080553532 83.989274680614471 17.143403477966785 23.877871043980122 33.140816375613213 17.226431101560593 27.965735115110874 15.996667906641958 21.01761906594038
leaf_count=112 148 653 589 106 160 174 111 176 94 145
internal_value=0 -0.00829314 0.0154564 0.00378703 -0.0065512 -0.0193052 0.00076805 0.0217884 0.015699 0.0122529
internal_weight=372.636 242.616 130.02 115.144 60.986 127.472 41.1043 111.955 54.1577 38.161
internal_count=2468 1591 877 764 419 827 271 765 345 251
is_linear=0
shrinkage=0.02


Tree=71
num_leaves=6
num_cat=0
split_feature=15 17 15 7 7
split_gain=145.748 203.148 20.0032 25.1481 7.94298
threshold=0.33630952239036566 0.40625000000000006 0.27291667461395269 0.99236217141151439 0.98825368285179149
decision_type=2 2 2 2 2
left_child=1 4 -3 -4 -1
right_child=-2 2 3 -5 -6
leaf_value=-0.02130720498294688 -0.02290197142768028 0.022214120342839663 -0.0099386930050128601 0.01898308730564929 -0.0067692227440125444
leaf_weight=64.86182264983654 84.455055549740791 146.70682755857706 19.651068583130836 26.361738294363022 27.055270507931709
leaf_count=477 557 1019 111 163 141
internal_value=0 0.00686921 0.0185595 0.00625714 -0.0173622
internal_weight=369.092 284.637 192.72 46.0128 91.9171
internal_count=2468 1911 1293 274 618
is_linear=0
shrinkage=0.02


Tree=72
num_leaves=10
num_cat=0
split_feature=16 7 7 13 13 7 6 17 6
split_gain=133.611 42.1221 21.3261 19.6122 14.4441 6.0493 7.00126 3.15606 1.65728
threshold=0.42708332836627966 0.9803278148174287 0.98753115534782421 3.5000000000000004 2.5000000000000004 0.98918655514717113 0.76011362671852123 0.40625000000000006 0.72957396507263195
decision_type=2 2 2 2 2 2 2 2 2
left_child=2 -2 7 5 -4 6 -3 -1 -9
right_child=1 3 4 -5 -6 -7 -8 8 -10
leaf_value=-0.021489436119318025 -0.010623252763386359 8.4886890244260553e-05 0.0058093250456381007 -0.0061924011601965324 -0.014965556669839902 0.019185580004769293 0.01668262567412326 -0.016803011722732249 -0.0050941422703267214
leaf_weight=74.080362796783447 29.835613772273064 22.183299638330936 30.351973444223404 14.872352831065653 21.649705812335014 115.12315073609352 22.708619676530361 16.253703497350216 17.768671065568924
leaf_count=561 196 139 147 86 115 833 168 115 108
internal_value=0 0.0106916 -0.0136296 0.0144814 -0.00258165 0.0165536 0.00909724 -0.0186884 -0.011579
internal_weight=364.827 204.723 160.104 174.887 52.0017 160.015 44.8919 108.103 34.0224
internal_count=2468 1422 1046 1226 262 1140 307 784 223
is_linear=0
shrinkage=0.02


Tree=73
num_leaves=7
num_cat=0
split_feature=15 16 2 15 2 16
split_gain=141.264 193.436 16.4457 11.2348 12.9738 4.05165
threshold=0.33630952239036566 0.40625000000000006 0.19791666418313983 0.27291667461395269 0.15625000000000003 0.11458333209156991
decision_type=2 2 2 2 2 2
left_child=1 5 3 -3 -5 -1
right_child=-2 2 -4 4 -6 -7
leaf_value=-0.0094039100607737208 -0.022743337346802766 0.023001183162435199 0 0.020646403297732038 -0.001824053282846643 -0.020533282604280678
leaf_weight=30.899043060839176 82.987361237406731 134.7942029684782 17.371674031019211 18.414430692791939 18.441226750612259 59.042843259871006
leaf_count=194 557 973 89 123 108 424
internal_value=0 0.00683061 0.0183409 0.0202074 0.00912351 -0.0170752
internal_weight=361.951 278.963 189.022 171.65 36.8557 89.9419
internal_count=2468 1911 1293 1204 231 618
is_linear=0
shrinkage=0.02


Tree=74
num_leaves=7
num_cat=0
split_feature=15 15 13 15 15 5
split_gain=137.46 112.628 63.0823 35.5785 15.2892 3.63427
threshold=0.33630952239036566 0.16369047760963443 4.5000000000000009 0.25198413431644445 0.28869047760963445 0.92616462707519542
decision_type=2 2 2 2 2 2
left_child=1 -1 3 5 -5 -3
right_child=-2 2 -4 4 -6 -7
leaf_value=-0.022660644565337184 -0.022591476505383894 0.0089184483435403288 -0.018454381708584641 -0.011892794660890023 0.0092372903301784545 0.022295656845741169
leaf_weight=42.519328892230988 81.8920544013381 16.199712090194225 22.645849257707596 18.3082115650177 43.558582626283169 132.69979636371136
leaf_count=295 557 93 166 117 277 963
internal_value=0 0.0067661 0.0122857 0.0157546 0.00257643 0.0210429
internal_weight=357.824 275.931 233.412 210.766 61.8668 148.9
internal_count=2468 1911 1616 1450 394 1056
is_linear=0
shrinkage=0.02


Tree=75
num_leaves=8
num_cat=0
split_feature=15 17 15 7 6 6 12
split_gain=133.117 170.733 23.4981 20.6863 5.17497 1.64178 0.248889
threshold=0.33630952239036566 0.40625000000000006 0.25198413431644445 0.99236217141151439 0.65336349606513988 0.81209269165992748 0.57916665077209484
decision_type=2 2 2 2 2 2 2
left_child=1 4 6 -4 -1 -6 -3
right_child=-2 2 3 -5 5 -7 -8
leaf_value=-0.0042579959355241292 -0.022619896291993787 0.022345600258807236 -0.0085248032514441217 0.015986575815680755 -0.021559693714234104 -0.010221295752908624 0.012606536942788453
leaf_weight=15.689043991267679 80.446929164230824 121.18490772694349 22.747646518051624 30.118902891874313 52.260705091059208 17.567216984927654 15.87414465844631
leaf_count=102 558 903 129 191 388 111 92
internal_value=-9.35532e-05 0.00647126 0.0170646 0.00510596 -0.0167496 -0.0191742 0.021462
internal_weight=355.889 275.443 189.926 52.8665 85.517 69.8279 137.059
internal_count=2474 1916 1315 320 601 499 995
is_linear=0
shrinkage=0.02


Tree=76
num_leaves=11
num_cat=0
split_feature=2 7 6 12 11 7 6 5 11 5
split_gain=101.466 59.3093 23.5798 13.4266 11.7694 7.6902 6.14047 4.58993 1.2642 2.2237
threshold=0.15625000000000003 0.98753115534782421 0.81209269165992748 0.42083333432674414 0.79166665673255932 0.98753115534782421 0.76011362671852123 0.93831565976142894 0.79166665673255932 0.94997084140777599
decision_type=2 2 2 2 2 2 2 2 2 2
left_child=5 2 7 6 -5 -1 -3 -2 9 -7
right_child=1 3 -4 4 -6 8 -8 -9 -10 -11
leaf_value=0.0070910270498602346 -0.022011886707794606 -0.012570262948197672 0.0021563165907010052 0 0.018072486901895446 0.018072607124585218 0.0029618468736906695 -0.010141059144204097 0.023599143398296791 0.0056556259930856233
leaf_weight=44.865232475101948 91.36510556936264 18.598033294081688 21.739989370107651 22.660745806992054 32.924118869006634 29.363190121948719 17.336431719362736 26.571284264326096 30.967356145381927 15.522066697478293
leaf_count=303 694 109 151 144 202 218 109 192 236 116
internal_value=-9.47511e-05 -0.00790392 -0.0160915 0.00441465 0.0106121 0.0146389 -0.00465805 -0.0196133 0.0186928 0.0144313
internal_weight=351.914 231.196 139.676 91.5193 55.5849 120.718 35.9345 117.936 75.8526 44.8853
internal_count=2474 1601 1037 564 346 873 218 886 570 334
is_linear=0
shrinkage=0.02


Tree=77
num_leaves=10
num_cat=0
split_feature=2 16 16 5 8 8 8 5 8
split_gain=98.2803 63.5366 61.9236 49.2033 16.0345 8.64042 4.37528 4.37288 1.55839
threshold=0.15625000000000003 0.36458332836627966 0.48958332836627966 0.93212810158729564 0.10031286254525186 0.041231574490666396 0.079937353730201735 0.93958547711372387 0.056173246353864677
decision_type=2 2 2 2 2 2 2 2 2
left_child=1 -1 5 4 -4 -2 -7 -5 -9
right_child=2 -3 3 7 -6 6 -8 8 -10
leaf_value=-0.012297068445361952 -0.0031719305920865476 0.022166686635245628 -0.020526889864003719 0.0050629638704790423 0.0030511902279834521 -0.02155402087998097 -0.0062496068531336527 0.022144121835046632 0.0092489277055219938
leaf_weight=26.115503877401352 17.973131962120533 93.830154187977314 30.533866159617901 19.666803978383541 15.716161414980887 89.937788240611553 13.456946842372416 27.917699821293354 14.44258553534746
leaf_count=162 112 711 201 119 92 671 86 221 99
internal_value=-8.68417e-05 0.014458 -0.00780019 0.00303386 -0.0121966 -0.0175749 -0.0198327 0.014721 0.0185235
internal_weight=349.591 119.946 229.645 108.277 46.25 121.368 103.395 62.0271 42.3603
internal_count=2474 873 1601 732 293 869 757 439 320
is_linear=0
shrinkage=0.02


Tree=78
num_leaves=12
num_cat=0
split_feature=16 5 8 3 8 11 5 6 16 8 8
split_gain=119.649 59.3538 31.0297 19.6147 37.8849 24.4956 3.23671 1.48577 0.710019 0.545307 0.960328
threshold=0.48958332836627966 0.93045121431350719 0.11550776660442354 0.20833333581686023 0.043589269742369659 0.79166665673255932 0.93757218122482311 0.65336349606513988 0.53125000000000011 0.059664258733391769 0.069990061223506941
decision_type=2 2 2 2 2 2 2 2 2 2 2
left_child=3 2 8 4 -1 7 -3 -6 -2 -8 -11
right_child=1 6 -4 -5 5 -7 9 -9 -10 10 -12
leaf_value=0.014868785981290577 -0.020877198473107265 0.0099904588267697245 0.015267518923286748 -0.023440413755570048 -0.0091088888215654102 0.0054641625812135546 0.022271275381751207 -0.020436983310307331 -0.0094574356708912316 0.0071948469509185466 0.019047727306589761
leaf_weight=22.339842088520527 20.944622576236725 27.530192293226719 16.100790023803711 47.194472700357437 15.421466521918772 19.896606296300888 71.879280515015125 59.866128377616405 15.226388886570929 14.969893984496595 14.75076089799404
leaf_count=118 138 186 98 355 104 117 606 430 98 113 111
internal_value=-8.48018e-05 0.0110336 -0.00657976 -0.0124427 -0.00769704 -0.0133007 0.0183129 -0.0185286 -0.0169918 0.0202537 0.0141572
internal_weight=346.12 181.402 52.2718 164.719 117.524 95.1842 129.13 75.2876 36.171 101.6 29.7207
internal_count=2474 1350 334 1124 769 651 1016 534 236 830 224
is_linear=0
shrinkage=0.02


Tree=79
num_leaves=8
num_cat=0
split_feature=15 16 15 16 16 16 12
split_gain=124.812 157.765 22.3778 17.3093 4.18744 2.85091 0.312478
threshold=0.33630952239036566 0.40625000000000006 0.25198413431644445 0.48958332836627966 0.51041665673255932 0.21875000000000003 0.57916665077209484
decision_type=2 2 2 2 2 2 2
left_child=1 5 6 -4 -5 -1 -3
right_child=-2 2 3 4 -6 -7 -8
leaf_value=-0.010071205553563676 -0.022335775672748782 0.022070946516680425 -0.011007145296625732 0.0038386814056450632 0.019731967098982065 -0.020037793585392531 0.012186209457412164
leaf_weight=34.28906974196434 77.306655779480934 116.20828891545534 16.322454266250134 16.750187322497368 18.28991562128067 48.310282796621323 15.414944216608999
leaf_count=228 558 903 89 102 129 373 92
internal_value=-7.99213e-05 0.00638278 0.0167678 0.00492899 0.0130068 -0.0163096 0.0211647
internal_weight=342.892 265.585 182.986 51.3626 35.0401 82.5994 131.623
internal_count=2474 1916 1315 320 231 601 995
is_linear=0
shrinkage=0.02


Tree=80
num_leaves=8
num_cat=0
split_feature=16 15 8 16 8 12 6
split_gain=124.235 127.056 21.9648 15.5921 11.6584 8.52044 7.79998
threshold=0.48958332836627966 0.34232954680919653 0.042895229533314712 0.30208332836627966 0.083387318998575224 0.65416666865348827 0.65336349606513988
decision_type=2 2 2 2 2 2 2
left_child=2 5 3 -1 6 -2 -4
right_child=1 -3 4 -5 -6 -7 -8
leaf_value=-0.011505099756381445 0.021401537505708834 -0.021246656439777127 -0.0070440820086796509 0.013819669756143921 0 0.0023380218543583666 -0.022024443291243881
leaf_weight=19.719804592430592 126.27832346409559 37.133260935544968 22.929213546216488 17.295923821628094 13.700414784252642 12.98973812162876 89.355696775019169
leaf_count=130 1034 245 156 92 82 71 674
internal_value=-0.000568451 0.010972 -0.0131704 0 -0.0171234 0.0197954 -0.0192311
internal_weight=339.402 176.401 163.001 37.0157 125.985 139.268 112.285
internal_count=2484 1350 1134 222 912 1105 830
is_linear=0
shrinkage=0.02


Tree=81
num_leaves=8
num_cat=0
split_feature=17 2 15 8 7 7 15
split_gain=120.744 81.0136 45.9093 17.5688 16.6193 8.85182 1.27393
threshold=0.42708332836627966 0.17708333581686023 0.34232954680919653 0.042648956179618842 0.99458870291709911 0.99458870291709911 0.27291667461395269
decision_type=2 2 2 2 2 2 2
left_child=3 2 6 -1 -3 -5 -2
right_child=1 4 -4 5 -6 -7 -8
leaf_value=-0.00066788865609285631 0.022119501538134429 -0.024017918655702377 -0.016324357389495989 -0.021659147929016846 0.00096085736054623259 -0.008078771362287079 0.013328497755684955
leaf_weight=33.341592095792294 106.08896236121655 25.626402713358402 13.642027221620081 79.596102803945541 15.17311245203018 34.653034061193466 27.573623284697533
leaf_count=201 899 184 81 657 85 188 189
internal_value=-0.000564328 0.00997654 0.0169285 -0.01411 -0.0144492 -0.0178194 0.0205669
internal_weight=335.695 188.104 147.305 147.591 40.7995 114.249 133.663
internal_count=2484 1438 1169 1046 269 845 1088
is_linear=0
shrinkage=0.02


Tree=82
num_leaves=9
num_cat=0
split_feature=13 12 19 8 13 16 7 16
split_gain=73.2172 85.0378 39.923 25.577 17.7076 27.5344 2.74851 1.86077
threshold=3.5000000000000004 0.55416667461395275 0.94618725776672374 0.038911186158657081 2.5000000000000004 0.40625000000000006 0.99682947993278515 0.44791667163372045
decision_type=2 2 2 2 2 2 2 2
left_child=1 4 -3 -2 5 -1 -4 -7
right_child=3 2 6 -5 -6 7 -8 -9
leaf_value=-0.0072103728713731764 0.0018621690082669502 0.012444435869005318 -0.023929016591973482 -0.021973664599145105 -0.0010287130506551534 0.010516162115470488 -0.010117402209022018 0.020651328754318819
leaf_weight=16.38204700499773 22.171147473156452 17.99566662311554 40.845225393772125 67.78039775788784 27.057818032801151 21.046834692358971 16.145393893122673 102.70674376189709
leaf_count=106 146 108 317 534 186 114 95 878
internal_value=-0.000562135 0.00510299 -0.0123495 -0.0159229 0.0130762 0.0159294 -0.020603 0.0191861
internal_weight=332.131 242.18 74.9863 89.9515 167.193 140.136 56.9906 123.754
internal_count=2484 1804 520 680 1284 1098 412 992
is_linear=0
shrinkage=0.02


Tree=83
num_leaves=8
num_cat=0
split_feature=2 17 7 13 17 2 1
split_gain=88.2719 65.8766 57.0368 33.1326 23.4265 5.21947 2.22455
threshold=0.15625000000000003 0.40625000000000006 0.99682947993278515 2.5000000000000004 0.53125000000000011 0.19791666418313983 0.054860904812812812
decision_type=2 2 2 2 2 2 2
left_child=1 -1 4 5 6 -4 -2
right_child=2 -3 3 -5 -6 -7 -8
leaf_value=-0.012972726464707263 -0.0082737577114131659 0.022163110714806519 0.016248664953237308 -0.017608647493680296 0.0016629477430522726 0.0014742268745491654 -0.020750928911968041
leaf_weight=26.748869478702545 13.999847516417502 86.252730242908001 43.682692021131516 17.647482693195343 23.294991202652454 16.415632486343384 101.03941968083382
leaf_count=173 98 708 322 102 172 90 819
internal_value=-0.000557291 0.0136298 -0.00809731 0.00537618 -0.0157974 0.0126306 -0.0194892
internal_weight=329.082 113.002 216.08 77.7458 138.334 60.0983 115.039
internal_count=2484 881 1603 514 1089 412 917
is_linear=0
shrinkage=0.02


Tree=84
num_leaves=8
num_cat=0
split_feature=17 15 8 11 17 7 2
split_gain=112.146 118.14 20.6493 19.685 14.6166 9.36503 3.14793
threshold=0.48958332836627966 0.34232954680919653 0.042895229533314712 0.79166665673255932 0.30208332836627966 0.9803278148174287 0.13541666418313983
decision_type=2 2 2 2 2 2 2
left_child=2 5 4 6 -1 -2 -4
right_child=1 -3 3 -5 -6 -7 -8
leaf_value=-0.011121601551766953 0.00060420855630258393 -0.020872451036948906 -0.009783484591946055 0.00032573576303874819 0.01358570927180695 0.021105787530526905 -0.022251333743322412
leaf_weight=19.341680124402046 11.861634299159048 35.832725711166859 18.596503794193268 20.372863821685314 17.044948510825634 120.94716846942902 82.012631148099899
leaf_count=130 73 245 119 129 92 1032 664
internal_value=-0.000551077 0.0106859 -0.0127107 -0.0166574 0 0.0194424 -0.0202626
internal_weight=326.01 168.642 157.369 120.982 36.3866 132.809 100.609
internal_count=2484 1350 1134 912 222 1105 783
is_linear=0
shrinkage=0.02


Tree=85
num_leaves=10
num_cat=0
split_feature=16 3 13 11 16 0 6 11 6
split_gain=105.106 20.1487 12.5205 20.6883 9.97075 12.6854 9.06241 3.20776 12.4145
threshold=0.48958332836627966 0.20833333581686023 4.5000000000000009 0.54166665673255932 0.59375000000000011 0.98407599329948436 0.65336349606513988 0.79166665673255932 0.78261959552764904
decision_type=2 2 2 2 2 2 2 2 2
left_child=1 2 3 -1 5 -2 -5 8 -7
right_child=4 -3 -4 6 -6 7 -8 -9 -10
leaf_value=0.013036781646401041 -0.0076443206867450502 -0.023091770649423148 -0.020482435927033062 0 0.018997136657092652 -0.00064534624365269143 -0.01511929534868914 0.014916091004321425 0.016428414978756085
leaf_weight=21.608914434909821 16.911297537386417 45.782023392617702 21.436310067772865 30.463581010699272 45.907390624284744 36.498676732182503 38.597603216767311 40.90359104424715 27.747920408844948
leaf_count=118 120 369 186 194 397 281 273 325 245
internal_value=-0.000105195 -0.0118428 -0.00690864 -0.00329291 0.0108145 0.00744507 -0.008801 0.0101095 0.006561
internal_weight=325.857 157.888 112.106 90.6701 167.969 122.061 69.0612 105.15 64.2466
internal_count=2508 1140 771 585 1368 971 467 851 526
is_linear=0
shrinkage=0.02


Tree=86
num_leaves=6
num_cat=0
split_feature=15 3 15 12 15
split_gain=104.955 98.463 57.2381 20.6804 22.4843
threshold=0.33630952239036566 0.20833333581686023 0.16369047760963443 0.66250002384185802 0.25198413431644445
decision_type=2 2 2 2 2
left_child=1 2 -1 4 -4
right_child=-2 -3 3 -5 -6
leaf_value=-0.020209582779995135 -0.021437822503931277 -0.023020407699727449 0.021513108408876276 -0.0027615010917600049 0.0047556842655015223
leaf_weight=19.554748013615608 71.19531811773777 38.440585017204285 123.80496000498533 21.99412702023983 48.497876018285751
leaf_count=145 552 307 1019 131 354
internal_value=-0.000105431 0.00589635 0.0112703 0.0146282 0.0169665
internal_weight=323.488 252.292 213.852 194.297 172.303
internal_count=2508 1956 1649 1504 1373
is_linear=0
shrinkage=0.02


Tree=87
num_leaves=10
num_cat=0
split_feature=17 2 8 8 12 13 19 17 8
split_gain=100.299 68.2785 17.0536 15.7715 8.13317 9.09144 5.72638 3.74264 5.61245
threshold=0.48958332836627966 0.17708333581686023 0.041433077305555351 0.083937510848045363 0.55416667461395275 3.5000000000000004 0.96396103501319896 0.40625000000000006 0.054789705201983459
decision_type=2 2 2 2 2 2 2 2 2
left_child=2 4 -1 7 5 -2 -3 -4 -9
right_child=1 6 3 -5 -6 -7 -8 8 -10
leaf_value=0.00071416231583531359 0.021244821809934079 -0.0031025995764121629 -0.021176629633755863 0.0040295100734355459 0.0016839215992563241 0.0019180905152770512 -0.021105186722873117 -0.00034164647461697113 -0.016584374170871961
leaf_weight=32.13385009765625 101.69010787457228 16.387245185673237 64.748000271618366 13.381796456873415 14.721998378634451 13.544341407716272 18.592697650194168 15.441560491919516 29.574395164847374
leaf_count=199 938 103 556 80 98 91 138 94 211
internal_value=-0.000108429 0.010658 -0.0116674 -0.0150391 0.0173799 0.0191813 -0.0135479 -0.0175598 -0.0115759
internal_weight=320.216 164.936 155.28 123.146 129.956 115.234 34.9799 109.764 45.016
internal_count=2508 1368 1140 941 1127 1029 241 861 305
is_linear=0
shrinkage=0.02


Tree=88
num_leaves=7
num_cat=0
split_feature=15 16 2 15 2 16
split_gain=101.023 139.126 18.4298 11.3366 11.6725 4.09869
threshold=0.33630952239036566 0.40625000000000006 0.17708333581686023 0.27291667461395269 0.15625000000000003 0.11458333209156991
decision_type=2 2 2 2 2 2
left_child=1 5 3 -3 -5 -1
right_child=-2 2 -4 4 -6 -7
leaf_value=-0.0083391793741711372 -0.021263084927811308 0.021546519216640646 -0.0017621709972439822 0.018582818121271077 -0.0032614191966635615 -0.019789214112298396
leaf_weight=30.041676878929138 69.705545842647552 115.27979000657797 18.344713941216469 17.500932119786739 17.603237152099609 48.852049872279167
leaf_count=211 552 990 102 134 110 409
internal_value=-0.000107909 0.00582839 0.0161108 0.0184204 0.00728798 -0.0158385
internal_weight=317.328 247.622 168.729 150.384 35.1042 78.8937
internal_count=2508 1956 1336 1234 244 620
is_linear=0
shrinkage=0.02


Tree=89
num_leaves=10
num_cat=0
split_feature=16 2 7 6 7 6 2 7 6
split_gain=95.2917 64.7946 24.1611 11.621 11.163 10.1455 5.07193 3.71374 0.602958
threshold=0.48958332836627966 0.17708333581686023 0.98753115534782421 0.65336349606513988 0.98825368285179149 0.81478682160377514 0.15625000000000003 0.98918655514717113 0.65336349606513988
decision_type=2 2 2 2 2 2 2 2 2
left_child=2 6 5 -4 -3 -1 -2 -8 -9
right_child=1 4 3 -5 -6 -7 7 8 -10
leaf_value=-0.020373729594759745 0.021530046642028552 -0.022637356377432926 0.011804969610128247 -0.0072998792058511586 0 -0.0024774434629195978 0.0050131944823525619 0.019769319565522248 0.0078931526263194603
leaf_weight=80.359700284898281 65.917768307030201 19.772032365202904 18.50810495018959 35.287756614387035 14.654201582074164 18.4842733964324 27.377963714301586 21.843282699584961 11.548528164625166
leaf_count=725 640 156 96 201 85 118 199 183 105
internal_value=-0.000110269 0.010522 -0.0114585 -0.00026651 -0.0132072 -0.0172857 0.0171798 0.0118652 0.0165924
internal_weight=313.754 161.114 152.64 53.7959 34.4262 98.844 126.688 60.7698 33.3918
internal_count=2508 1368 1140 297 241 843 1127 487 288
is_linear=0
shrinkage=0.02


Tree=90
num_leaves=11
num_cat=0
split_feature=16 2 2 13 16 13 2 16 8 8
split_gain=87.9825 65.2473 22.0168 11.421 6.41993 3.97013 3.31431 4.24651 2.19717 0.784265
threshold=0.42708332836627966 0.17708333581686023 0.15625000000000003 3.5000000000000004 0.23958333581686023 2.5000000000000004 0.15625000000000003 0.51041665673255932 0.056372674182057388 0.072989128530025496
decision_type=2 2 2 2 2 2 2 2 2 2
left_child=2 3 4 6 -1 8 -2 -8 -4 -10
right_child=1 -3 5 -5 -6 -7 7 -9 9 -11
